{"layers": [{"name": "input", "unit": 17, "activation": "Linear", "useBias": true, "train": true, "weight": [[-0.9486675379579194, 0.5706605285410687, 0.029482199233034963, 0.7464444546119635, -0.7721409853955302, -0.23525449431404796, 0.03158591654998458, 0.03382185263464769, 0.04333673139670574, 0.050713978744287805, 0.04524319078904177, -0.2633564592896742, 0.2826266884341614, 0.27800137116014795, 0.2750217259330584, -0.10954624763046006, -0.10462558275156886, -0.047390384348973996], [0.27906241239286206, -0.19309878751826934, 0.10863761822228539, -0.27605229425642414, 0.3844280692007583, -0.02873953910895128, 0.17562083608785883, 0.21606242029499362, 0.15203392647216057, 0.15390225873772972, 0.05290583007366078, -0.4498713195396305, 0.23062161792264074, 0.036968729044299355, 0.18264970321243493, 0.258958358165289, 0.3753393979283741, 0.6674775501345922], [0.15842170464118616, -0.7761205292509076, 0.4090398899133513, 0.3786289976470716, -0.8295399179804523, 0.19448808870768997, 0.14281562740921702, 0.13716286910571684, 0.10639354469851929, 0.05999864848237058, 0.06777731878117768, 0.5700148894726925, -0.13202976075715495, -0.0792893180573793, -0.12270288130905559, 0.2390206236878209, 0.2176263230486041, 0.6302321458749255], [0.47027522385992876, 0.5600658898025281, -0.6483617054732378, 0.3082382975679333, 0.3044307065462956, -0.7399882387935188, 0.11246265773858977, 0.06373416642298609, 0.10732114571747849, 0.09667814187118877, 0.03277673797970669, 0.8830543226224158, -0.17965938872958193, -0.16882186033146576, -0.2249231211495844, 0.30483377828214747, 0.18120437809205328, 0.1674489712992088], [-0.9545773831363257, -0.07772082566481966, 0.7514208421662218, 0.8285425587330125, -0.04916323936768993, -0.8974362601753819, -0.09396841486284536, -0.08777664023972229, 0.085635323682771, 0.09201341931882062, 0.07212594017955322, -0.7598094640640259, 0.15499286908215743, 0.12879299781069634, 0.13563763101122542, 0.08190881720587824, 0.1079382124821618, -0.08895201733166516], [-0.5339827135670803, 0.33547497259220466, 0.29850974385337864, -0.548485758421999, 0.5235911810047175, 0.2666160915315145, 0.10805214424683254, 0.07275098639000033, -0.018945084092510233, -0.060185199312828355, -0.0313399336441737, 0.6100895161935208, -0.057916518426916475, -0.15178860601710648, -0.022659152655560788, -0.0013810870427383784, 0.1261758051507633, 0.5740999509492797], [0.7551132790020791, -1.436977124796144, -0.14030881030195086, -1.0123281814419067, 1.1796980415468483, -0.11741007360148008, 0.10341323410052196, 0.1032949624659393, 0.09150107480962724, 0.09118295586672716, 0.09072670952215059, -0.9108698214026163, 0.29327449747608947, 0.29417505565315044, 0.29439832891128115, -0.11862510213959836, -0.11888287783049552, -0.11185321874833976], [0.12695791560555508, 0.6124611401513154, -0.9352542905640603, -0.2857941126381491, -0.8133883560807494, 0.7223237999718884, -0.09407206402609725, -0.1110854296757304, 0.19802794964543866, 0.19576432307002772, 0.19179118800416453, -0.5468901497679979, 0.3005991903663547, 0.3223959236459552, 0.3133915743303387, -0.009315197690579162, -0.03381425026553106, -0.1757993085341809], [-0.08470405130399229, 0.10925106183617406, 0.12787464129437315, 0.057624335811875114, 0.11241747248848719, -0.048547691958736476, 0.1602517313268877, 0.09329564142491108, 0.14507137189407332, 0.12521940815748278, 0.2307295113849532, -0.4176008554887623, 0.1463899528076991, 0.2175553259460906, 0.24860642616320944, 0.1966087037302017, 0.12998664851258546, 0.4092192997653265], [0.04786593190665877, -0.12406848067660912, -0.24179860270089817, 0.009655411315049715, -0.19579598098874065, -0.20129848130868105, -0.15632924128523473, -0.15948279418003117, -0.03584270874968852, -0.16456308177134163, -0.09433381467635164, 0.0014746074156253184, -0.11708818086900065, -0.11085211994620689, 0.0003000682769940432, 0.0064884285794417915, -0.01674825225567383, -0.8503592728316431]]}, {"name": "_h0", "unit": 10, "activation": "ReLU", "useBias": true, "train": true, "weight": [[-0.062474106547057005, -0.2542665458514741, 0.06290732728296058, 0.05845163096073773, -0.19747755652389806, -0.07415494090223514, 0.02236492351187514, -0.08030121951294862, 0.011655136616040172, -0.10147346134526695, -0.7601843367150397], [0.7351517263102946, 0.35884447689931936, -0.13426913826034426, -0.22938277245168237, 0.7815104344822978, -0.1176090111144278, 0.8777844081846342, 0.7749546815878958, 0.1370604267967225, 0.06806684727448623, -0.3195059089884323], [-0.5343698043902434, 0.28114802919462584, 0.7065703513830591, 0.5561758128854034, -0.5959954672345177, 0.6748975843818495, -0.8163552702783224, -0.583987639983053, 0.22618703587653766, 0.05149274309117707, 0.5434534179489967], [0.38684117742725355, 0.44696910945466545, -0.3439903909772805, -0.5284967296904453, 1.021761810933048, -0.24475825161382248, 2.2972038175421083, 1.3278470992689104, 0.06947537111427803, -0.03949560567175591, 0.24104660073809425], [1.132879227158365, 0.22533230459262385, -0.14650323699980392, -0.2505595610439946, 1.1561355219835714, -0.17482979526495132, 0.7602520440660063, 2.1683683318692224, 0.36482488000794977, 0.121639761025718, -0.3168826413296137], [-0.6486448624443838, 0.2460923578751708, 0.8078857859232329, 0.9853524841094111, -0.7919215048854106, 0.9627944763728908, -0.8508902854725825, -0.4939279988180388, 0.1930513029353378, -0.33478407226106893, 0.8592963012380027], [-0.4416204119776343, 0.24233936755318564, 0.7491831537361257, 0.6915816666777699, -0.5037636304933985, 0.48734657952024313, -0.2581281400178728, -0.49831010213515314, 0.008292369470281334, -0.09154612922597989, 0.7100391612595294], [0.5101153112928507, 0.20006693760560573, -0.2582704277180672, -0.18357135330590912, 0.6254051647397477, -0.3183868789283378, 0.6412075997521279, 0.5452063046056234, 0.11533388337987575, 0.1593791106766249, 0.33257868294323156], [-0.6086252527674461, 0.0877011137225003, 0.8228705826468591, 0.7940310286246343, -0.41222055627472165, 0.7901217429773774, -0.5668061236804418, -0.4905741297717762, 0.28227335097198464, -0.06501492573372465, 0.5618703687645685], [0.5032698766637153, 0.33451065875110486, -0.24266619487967253, -0.3052122829511303, 0.5161088983244845, -0.25610324603223983, 0.6091679849440075, 0.4774565177000106, -0.0357572634509423, -0.10084826115452804, 0.285865005757686]]}, {"name": "_h1", "unit": 10, "activation": "ReLU", "useBias": true, "train": true, "weight": [[-0.13408551662513993, -1.2438639996400482, 0.9131712841168788, -1.4627857791561616, -2.071544450598286, 1.0987701535259673, 0.7037735788255239, -0.5001396270008235, 0.7553483461897472, -0.6210017607102926, -0.42772541162575145]]}, {"name": "output_Sigmoid", "unit": 1, "activation": "Sigmoid", "useBias": false, "train": true, "weight": null}]}