{"layers": [{"name": "input", "unit": 17, "activation": "Linear", "useBias": false, "train": true, "weight": [[1.2555010051407127, -0.9253619947501718, -0.9668728997331025, 1.2561473483232697, -1.007888055339018, -1.050200282601143, -0.30458699643787107, -0.3192726350320746, -0.17775860665023765, -0.17428263184574572, -0.2624848939135031, 1.1134312273649267, -0.6430012587200854, -0.623454981569104, -0.6826100120952797, -0.2623135668611496, -0.37789145790017986], [1.9987586718692798, -0.15008130827990082, -1.6116477034663388, 1.8573794331196218, -1.7519811389415907, -0.09246872541431793, 0.08947386140405404, 0.1045856387145698, 0.050234212805122726, 0.08879864084780584, 0.12456008934725793, -0.9932206494934672, 0.4330613694103342, 0.5268388637639878, 0.4141493613109925, 0.1302132757356068, 0.08717532419170411], [-1.917360862731807, 0.18533931762921194, 1.5772534502986133, -1.9164127190868447, 1.5677856779079617, -0.0273647804650085, -0.09466408698068185, -0.11340356069936032, -0.018538140453925513, -0.0564105343084794, -0.09223830229816701, 0.9990289165862186, -0.40152984972814587, -0.49499425244261863, -0.3800857711848609, -0.06702267680700989, -0.02147310054430859], [1.8569335981625772, 0.07150350756871604, -2.5396110282316116, 0.07767941574691146, 2.0452958638316425, -2.065958142067319, -0.09628259500438328, -0.11268101574845185, -0.06958937077036322, -0.07430983682505392, -0.0888710765574078, 2.0166579112894167, -0.5252060651784166, -0.5534635412539003, -0.6417959887147072, -0.0385352400314096, -0.09142216281909088], [-0.1707950259964755, 1.3971377405620906, -2.0733037759874655, -0.3246237853127454, -2.258340347621256, 1.3617362504701085, -0.19690154134460294, -0.2271894677240755, -0.22580535093781362, -0.16284695319881878, -0.23609093013713262, -1.0543147328345206, 0.14916398414938, 0.13118783703888712, 0.15289814683683292, -0.2496224613013857, -0.353090965245937], [-1.5805865087842945, 2.5808528621473297, 0.20032412428467644, 2.5089510983745034, -1.6161261268410143, 0.2537796751638755, 0.3181128790005916, 0.26578342458592463, 0.1975924603529221, 0.17951455327998386, 0.2150752398142743, 1.1801981456974415, -0.13012667106645462, -0.08572559603152034, -0.25067986419894817, 0.1969889856801995, 0.2763599123034754], [0.2380385981859894, 2.4637774222048434, -1.4431778018066523, 0.2445086301749938, -1.6468985882249827, 2.179319146211303, 0.220012190833873, 0.21852747994181917, 0.2564016792557083, 0.08880670608798263, 0.27724447915632316, 0.9595053750057185, -0.13758804931214055, 0.033909578630970806, 0.06558996724350584, 0.3840391556959187, 0.2077445924980215], [-0.8774603129420383, -0.7159912351228415, 1.071671700872804, -0.8808153690994849, -0.9656248240443042, 0.989662387119241, -0.24728343010796228, -0.3047677352885939, -0.22397456037328586, -0.18009030225993694, -0.18429993180674334, 1.0271154039299588, -0.6061094109448101, -0.5729053536370942, -0.5850454506951294, -0.2701808712017666, -0.2265841851821625], [-1.5968918674254133, 1.8997250855879035, -0.18653908062529886, -0.15829690657285742, 2.0557132558679094, -1.5056924921340873, -0.024350207805945344, 0.0051567386923547015, -0.11025218326586764, -0.002288770565687539, -0.038264550595517074, -2.067155585790523, 0.8313954056528328, 0.719975539252408, 0.6325810126177492, -0.1489349757208901, 0.03838923905551568]]}, {"name": "_h0", "unit": 9, "activation": "TanH", "useBias": true, "train": true, "weight": [[-2.5718279886884967, 2.9681964169370296, -2.800622968998705, -4.410982015670197, 2.797143082881745, -3.8616087719264782, -3.45939816483779, -1.883962421339845, 3.5653135685257284, 0.2242866972854317], [2.576651505923104, -2.9536765264483957, 2.815413894827443, 4.409627470511009, -2.80705916371316, 3.7236401538407713, 3.520412371332113, 1.8926329230298733, -3.632445649670731, -0.018344975796072596]]}, {"name": "output_SoftARGMax", "unit": 2, "activation": "SoftARGMax", "useBias": false, "train": true, "weight": null}]}