{"layers": [{"name": "input", "unit": 17, "activation": "Linear", "useBias": false, "train": true, "weight": [[-1.0920675136777425, 2.1893760111775302, -0.765817981282972, 0.6122348502630253, -2.5759872785681, 0.8170658887310748, -0.059060768255858355, 0.16263962200680224, -0.364309376843632, 0.5634520862215283, -0.11419762071334293, -0.7420805750073787, 0.9495565936489102, 0.7879027835544525, 0.22659069438779095, -0.08022115671206861, 0.12122047774201418], [-0.35898821824332594, -1.264065151328487, 0.8420167088219392, 0.19838013268395274, -1.3266713262660843, 0.8139333344596653, 0.2841895449556129, -0.13580684157713507, 0.012298136581803286, -0.1068820587659011, 0.2879871891166536, 1.5716291479004452, -1.12183743031806, -0.565261549147917, -0.6105905787430994, -0.3819305251925905, 0.425357748506153], [-0.09275975012696065, -0.26008860615752555, -0.1669413041165793, -0.7181700128946253, -0.2926936251959365, -0.7265907768664903, -0.6481014495442021, -0.5283499219757466, -0.561982342569971, -0.3314322018536219, -0.5103422214443493, 0.25801657235525916, -0.5373598700641531, -0.33199043806062906, -0.3927588317233582, -0.48344316815257427, -0.21411367323823613], [-0.42469308340949374, 0.056562481839576934, -0.2046807439603328, -0.33725255043226715, -0.0991052590982422, -1.1420175372707124, -0.5833135661786746, -1.0207508993638859, -0.7076732789495009, -0.614048053066253, -0.433576025466129, 0.41434824664166703, -0.6861697018537667, -1.0328652172234305, -0.2718451838804507, -0.2413364030092179, -0.32675348894943157], [-1.9889704588693058, -0.08570183779623664, 1.111638119727193, -1.6842232126460635, -0.1717605477821701, 1.530163273109767, 0.3707050492036351, -0.018582692386961138, 0.22419988757312526, -0.03499251116853615, 0.01788243569791375, 1.0752475469608362, 0.08233832605006841, -0.9051394231274859, 0.21353181294917356, 0.08222844321610595, -0.1268254754775621], [-0.8512977415832665, 1.849169716347722, -1.1466535139327967, -1.2244015574855471, 1.4217166698394088, -1.6999333113416886, 0.2624853209264008, 0.28806257747369585, -0.010497350882662479, 0.4914216054541328, -0.013932946276803467, 1.6723956094827093, -0.6272011625378415, -1.0966824817787544, -0.767687589139059, -0.0498752753490189, 0.04402883519921159], [-0.3834931115567556, -0.6052205016563569, -0.3659898159287189, -0.3536800377917734, -0.7419459418675612, -0.6925629330783625, -1.037192705374575, -0.7223578044560577, -0.9357104136916984, -0.6272491238997825, -0.3916208929976337, -0.08728807791874033, -0.19657972882736188, 0.07634041627267656, -0.09067282819438893, -0.8114609155011756, -0.31839817149386596], [1.8956691022181036, -1.5699026220184131, -0.9135124087646603, 1.112343587381691, -1.3475386065101733, -2.3761122038066467, 0.045823861627888325, -0.08765829172140355, 0.2622030122601091, 0.399051642674959, -0.4323093588176642, 0.50005897963489, -0.20670599860551728, -0.0033651415164177253, -0.10171220654438687, 0.4988704742327651, -0.25960551386507036], [1.2480751701520019, -0.29019122715799905, -0.25897055076752284, -1.088260932240452, 0.7278309977207008, 0.6702892833660579, 0.7484195342624315, -0.8185092563108465, -0.05352336701778823, -0.09162983703890223, 0.012342913803552314, -0.9988342921508014, -0.4823675834675788, -0.8838190824161285, 1.1056512739564124, -0.578094035734738, 0.13166972386433745], [-1.605822763397617, -0.025685334699110732, 1.4162373316259222, 1.5746049820854726, -0.6206187096254758, -2.309827143608001, 0.017514351110194303, -0.07759326188414911, -0.8261568558136397, 0.8113638343446097, 0.18285595567808427, -1.057793935687545, 0.9072693483950037, -0.5506233375130507, -0.12539653594864006, -1.076206477225987, 0.03011084428064686], [1.2389050541891118, -2.776923905452027, 0.13891144844624134, -1.9252870312832284, 1.6265599727059725, -0.5872581385041337, 0.021618694824451494, 0.28296890506715805, 0.09500070774926607, -0.021286494759728936, 0.001301759153236351, -1.702193450316633, 0.29029305500203145, 0.1471417340997564, 0.49200362087220156, 0.6558569409068669, 0.017749128201051696], [-1.0758727489505315, 1.009233949476766, -0.14882924279260895, -0.43222321746930215, 0.8700959555832085, -0.3918584502918157, 0.32714755173535315, -0.9302955337680271, -0.42799943301131077, 0.3332303973050859, -0.0382546311805234, 0.86664611310818, -0.017679970543321096, 0.0652153682998305, -0.9902514137406856, -1.0456489893936243, 0.30960076218468274]]}, {"name": "_h0", "unit": 12, "activation": "LeakyReLU", "useBias": false, "train": true, "weight": [[2.0220617996616617, -2.7945726327639777, 0.5509678813615704, -0.9935167832391315, -2.2494388395765497, -2.599083552314629, -0.14760719299880148, -2.296165277140886, 1.3005827663283922, 1.2314482851370538, 2.6507560495238733, -1.248644696583418], [-2.0882738605670528, 2.5572823874197557, -0.7927104009908705, 1.4915066941367285, 1.921807753274906, 2.335985155103158, -0.19970738764753027, 2.3540631103936125, -1.381038494969481, -1.7479075643583883, -1.9852580222713054, 0.8896150148023502]]}, {"name": "output_SoftARGMax", "unit": 2, "activation": "SoftARGMax", "useBias": false, "train": true, "weight": null}]}