{"layers": [{"name": "input", "unit": 17, "activation": "Linear", "useBias": true, "train": true, "weight": [[-4.0211061046707672e-28, 2.849181724360802e-28, 2.6653034101918327e-28, -1.446282646829292e-28, -3.951890655043546e-28, -6.2810970209829615e-28, -5.077034539398697e-28, 9.703226727966954e-29, -1.4180603958734287e-28, 6.1549333274012595e-30, -5.507849783814506e-28, 3.069713144940358e-28, 1.2395879624573878e-28, -3.3048429769397253e-28, -3.655410108209597e-28, -5.966192511135767e-28, -4.828735678400576e-28, -0.25497217620892376], [0.019662624271640127, -0.0027165062783776135, -0.019205882670471457, 0.006247167656877225, -0.0025398342372777542, -0.003670956675936927, -0.004985107736708103, 0.004580697422869914, -0.012235940547842848, 0.011132242339707644, 0.0008790123449732223, -0.04184429036332044, 0.012186692453140325, 0.011015585598744116, 0.015820324944067918, -0.0021021397577336725, 0.001462857686259491, 0.09845096241604888], [0.019607816812664748, -0.002754452470110072, -0.019424617706166408, 0.00619793758832417, -0.00265595178740054, -0.0038458362430819127, -0.005217107649834824, 0.004528784078875926, -0.012500447293710368, 0.01109898254063465, 0.0008577032545303082, -0.041952787385182815, 0.012149195082846478, 0.010963736336270135, 0.015784523989171538, -0.002343941063974323, 0.0014036693308676833, 0.17540148849338502], [0.019606576276404566, -0.002755812796918002, -0.01942525284921603, 0.0061968287912961, -0.002656951323853581, -0.0038472938926335785, -0.005218876256005849, 0.004527629635302757, -0.012502214163997978, 0.011098202263153792, 0.0008571008300645818, -0.04195232084616329, 0.012148288906510107, 0.010962324895134434, 0.015783763943162495, -0.002345154398931051, 0.0014019384073772068, 0.1778040300967973], [-0.019773215307566976, 0.0025271557254005887, 0.019285866169184245, -0.00636924929330851, 0.0024890530615322205, 0.0036061588419414666, 0.004922522848371547, -0.004708636359309195, 0.012191361309970242, -0.011207502335215945, -0.0009551008621914446, 0.04195677782990327, -0.012273056084016017, -0.011173341155249832, -0.015890157832868127, 0.0021511498470517883, -0.0016884409219395783, 0.25252483306966533], [-0.019772912621080385, 0.0025276795182556863, 0.019286300858795204, -0.006368831613886842, 0.0024894332581699985, 0.003606715625773808, 0.00492322125799893, -0.004708227845373932, 0.012192146697221967, -0.011207299787114345, -0.0009548823930207982, 0.041957019815294545, -0.012272828764073847, -0.011172911911826889, -0.01588999714057198, 0.0021516242174607456, -0.0016877995818118576, 0.25147450857108145]]}, {"name": "_h0", "unit": 6, "activation": "ReLU", "useBias": true, "train": true, "weight": [[-1.985941492397695e-28, -0.01810194962361563, -0.010778400283758873, -0.010632504347011953, 0.008277786243314473, 0.008309372835410866, -0.0015677656708493494]]}, {"name": "output_TanH", "unit": 1, "activation": "TanH", "useBias": false, "train": true, "weight": null}]}