{"layers": [{"name": "input", "unit": 17, "activation": "Linear", "useBias": true, "train": true, "weight": [[-7.330246981108185, 5.32460567835457, 0.8267845469767725, 2.607918553582174, 1.3655774538454528, -4.913027533333011, -0.29237861530127357, -0.12353882418242045, -0.4302921205536595, 0.3462478773001275, -0.04886231575398834, -2.331734152113225, 1.199427579826267, 0.6877525767222149, 0.5087862668919333, -0.7871581069035025, 0.252247126745657, -0.34573588700025404], [4.82502943616759, 2.776806731370381, -3.4632633177380163, 4.1834160401847535, 2.7478646163705496, -4.0053588937980305, 0.2032054217094235, 0.500122290386149, -0.06391963893166021, 0.6726636341388297, 0.024388843522300786, -5.374082034707901, 1.9585401664923219, 1.4852243702298114, 1.4602973532665946, 1.0255477140819995, 0.748577540459455, 0.7163548679808396], [-6.790902452402305, -3.5841408166148603, 3.9771410699127046, -6.325841964694549, -3.7028690945822795, 4.43036884085084, -0.4924397406660679, -0.43304259020534747, -0.39466374033159773, -0.6074577726328534, -0.43522573194474656, 7.042757278160356, -1.625604640656869, -1.7948871711368162, -1.3818156621073645, -0.5922562037747559, -0.3904930999175273, -0.6095704298740742], [-4.91025616471796, 3.8698240512076025, -4.082051787044977, -4.027748434305366, 2.959582742241156, -3.9856490578631814, -0.24803346865117434, -0.17706145397236017, -0.010852424525318049, -0.17079739143537986, -0.04282352021444561, 7.60772206970949, -1.8794933727452665, -2.203402364521045, -2.0597083233311393, 0.07653975185169223, 0.2722347282123208, -0.45260234602035376], [2.5955216293924988, -1.6973393890462507, -5.026154942950985, 4.571429179397218, -3.0108407329244526, -3.708445591563551, -0.9336611596230304, -0.9554266612033268, -0.10135481556902813, -0.63410852826893, -0.416859899107139, -1.2642298346270766, -0.7070546750718238, -0.3448792954011979, -0.5046283710763083, -0.022535246994680513, -0.6439866811089981, -1.5250897942015584], [-6.187836701978319, 4.228089401528369, -4.7384683926193505, -5.708033271254903, 3.6645545824093197, -4.34084112041415, 0.014484071845601352, -0.013357036649316022, -0.5791460220401139, -0.7146017406404276, -0.8851520144614387, 6.707817544366045, -1.2987209563164388, -1.6530428523331144, -1.4286854190297666, -0.5995514510114707, -0.5462314098042047, -0.31867634547736323], [-5.014481960408094, 3.885976152294006, -3.7641792522403605, -3.959546043541716, 3.2239847580541237, -3.4633519470978418, 0.08343810083186846, 0.172819677937994, -0.059473228969376665, -0.22523178906565805, -0.13751452958850538, 8.517494629953218, -1.3710096781649752, -1.7962018855494255, -1.6130086112146764, -0.720789710134993, -0.5542500326315707, -0.6235835030640925], [1.666437121685983, 7.254619351623968, -5.2501481933706255, -5.503922505221476, 5.772706634277937, 1.724568387392449, -0.4825971844049225, -0.5066879332546447, -0.345876338373628, -0.3491249190106081, -0.44386130278249086, -3.771632811140836, 1.006864848185067, 0.9731719525214686, 1.3303239391608006, 0.22484420758762833, -0.046698586116020055, -0.5630003171725588], [3.63580926065116, -4.754645205931188, -5.018265084391411, 3.553860723116363, -5.699947471817203, -7.221583861256229, -0.9647950264794214, -0.8120595990863274, -0.9368384921444649, -1.5211033821952886, -1.2483233441990156, 1.405802959085971, -0.858775317702314, -0.29954455561149745, -1.2200569954651153, 0.43393063043562613, -0.7260794924558093, 0.09232433494385657], [4.8959919488487795, 1.2837292064942352, -3.270856345364119, 5.202180865980791, 1.426180507693869, -3.1004841106488374, -0.22445919104176723, 0.39323046424341074, -0.006715640047834297, 0.7410876131772652, 0.3025468207471681, -5.054615251112867, 1.5700286868233218, 1.791642815456127, 1.5283687774027985, 1.2167623474241747, 0.5122663166488711, 0.1670377571688802]]}, {"name": "_h0", "unit": 10, "activation": "Sigmoid", "useBias": false, "train": true, "weight": [[-5.755795732435323, -2.6734574881068953, 11.18629863600198, 10.09679036852281, 6.354660511155015, 8.993741267928062, 9.34931626299906, -6.693110708367806, 9.455772282152067, -2.183218862732384]]}, {"name": "output_Sigmoid", "unit": 1, "activation": "Sigmoid", "useBias": false, "train": true, "weight": null}]}