{"layers": [{"name": "input", "unit": 17, "activation": "Linear", "useBias": false, "train": true, "weight": [[-1.6772909797077766, 1.6078719332484441, 0.1001101195124807, 1.619102891452017, -1.665395858811568, -0.15800614066335994, 0.06729367962295026, 0.06762919476554116, 0.04763062338409565, 0.048174944259267195, 0.04779237464520551, -0.49545204662246034, 0.2577764117491449, 0.2579224990520124, 0.2571243788721356, -0.3150103437994036, -0.31509481608429396], [0.665453346906992, -1.2189263851774126, 0.7901185290723667, 1.3420670286156082, -1.5659949864395264, 0.03490173092588172, 0.3937574266528492, 0.36937147119571834, 0.31963889046484717, 0.17603319810911316, 0.39334593745552304, 1.3108989163562481, -0.4638492133974981, -0.14516528258665845, -0.33500190851133876, 0.32155984999636833, 0.47605166705946184], [-0.32631597204687296, 1.5557097534676567, -1.1516924322252258, -1.237068583743409, 1.2830641793194042, -1.3004554719640142, -0.05478501142211606, -0.164377980723851, 0.01197626930607297, 0.016491353746321498, 0.05209529747390991, 0.8506381006783919, -0.24256216514255305, -0.34996980037299164, -0.30037589200865117, -0.004397412897322992, 0.20722107635641757], [-0.6509399601514482, 1.7119951035636922, -0.5709416351048038, -0.6914197802084694, 1.5837727084537943, -0.8746261417665386, -0.2683196579674276, -0.3471038302623818, -0.20226009736794937, -0.12494138918398702, -0.026835218599461294, 1.0537043519487899, -0.4062004539219203, -0.48640053943491657, -0.5656161602922388, -0.0733733390134054, 0.02284093043000667], [-1.3843004589626597, -0.290496932859212, 1.478598167668926, -1.5358454344481933, -0.5518727689533285, 1.5755548236932109, 0.21765663085220527, 0.07046812521499854, -0.32017028377090273, -0.26546956733073135, -0.055967413786548084, 0.5422531238743796, 0.02413543119672424, -0.2726483635624265, 0.10201075128823271, -0.5259288245400481, 0.020171044962987165], [0.7651186721315842, 0.7468648429024125, -0.9212934891340833, 0.9806253628620797, 0.6674613672674914, -0.8583915889216738, 0.521700232301573, 0.4383803705038615, 0.235108347832929, 0.23417737180801435, 0.3171728630858556, 0.8657778191202117, -0.629948644449023, -0.7364835656477288, -0.5885523926252723, -0.032660216821392855, 0.06765506866512802], [0.25741191636380123, 0.0692288546139481, 0.47084109060683116, -1.0777897610493743, 0.527968211273188, 1.0394308880739538, -0.083957386644001, 0.24231170146099795, -0.16273512837690418, 0.08810542127379542, 0.6905513174687292, -0.5566984443778411, 0.7323350072007078, 0.7852305414926891, 0.5449244993682697, 0.008297860907583025, 0.8244602290360308], [-1.1857678661574667, 1.8861765221739188, 0.1166200655957067, 1.138707110187391, -1.9317377840915995, -0.16257080729468684, -0.023492726456852693, -0.023029963659024107, 0.01895284290113856, 0.019285151911913923, 0.018405838921772718, -0.8490629388572651, -0.031916670116687716, -0.0316818764003072, -0.03315860413021927, 0.08281043202531066, 0.08271465348597604], [1.2612177022979347, -0.626998677340916, -1.4253893336147543, -1.1325869740117975, 0.842263309290218, 1.584897696883393, 0.29698479098623665, -0.13675941342969372, 0.06479393181459576, -0.12417766638754917, -0.18657668267474892, -1.2060515763289796, -0.11134833165106957, -0.08060285726308414, 0.5771567809455269, -0.04418671849739868, -0.1584874447907125], [0.32246426344390045, 0.5735051465246301, 0.36123853833129155, -0.6989927729143058, 1.0507596214676336, 0.7493512272139494, 0.5385740956550481, 0.354958437284743, -0.04470334120389427, 0.4975201773449104, 0.39293314308926997, -1.5182858437381548, 0.6935802114921839, 0.2782206408742522, -0.00486436921355204, -0.2734528773796763, 0.5083045587095192], [-0.7771003535085538, -2.227315054718632, 2.0883711921736396, 0.4000386621608883, 1.850476850062968, -2.4646663892168723, 0.008580886991691246, 0.00666399597771532, -0.06344317759076114, -0.0605899019993769, -0.06338447792753056, -0.8486908068702623, 0.24049853287378933, 0.23929233504452455, 0.2394533790896676, 0.19018160543663057, 0.19250106658543706], [-1.2951742449208405, 1.0418079237195368, 1.4850771274694896, -1.781848611174922, 0.9436745949732869, 0.9841773623069067, 0.2618912243183722, 0.1808806189472049, 0.3068606901307475, 0.2941479242643386, 0.31920687249054136, 1.6474544799823831, -0.4168194469845985, -0.40447451516431815, -0.2983572242956041, 0.13387722253899426, 0.22599241695837158]]}, {"name": "_h0", "unit": 12, "activation": "LeakyReLU", "useBias": false, "train": true, "weight": [[1.9017277841070697, -2.211599030655792, -1.6060758457243023, -1.1027808860450348, -2.2063080729467024, -1.5194835886512517, 0.7483283220533294, 1.5663684696390592, 2.0084151160225896, 0.381342743821047, 2.291195347953218, -1.4823453078420075], [-1.9909848919684612, 1.8917201334659293, 1.2801950642749227, 1.774095727826752, 1.7646452881183936, 1.1648140360514847, -1.2165254233460177, -1.4883193487253652, -2.1168733870863425, -1.0775552006005653, -1.3940713438420036, 0.9983556752298277]]}, {"name": "output_SoftARGMax", "unit": 2, "activation": "SoftARGMax", "useBias": false, "train": true, "weight": null}]}