{"layers": [{"name": "input", "unit": 17, "activation": "Linear", "useBias": false, "train": true, "weight": [[-1.6384375802497213, 0.10644531716637341, 1.668928357639146, -2.116470910892771, 1.7188086299471763, -0.4680078523409341, -0.24211810808873335, -0.10265978422256854, 0.026724163768255406, -0.28170127624324165, -0.18886383087545056, 3.6244989816354747, -1.284092711827083, -1.7388131046722284, -1.397622388728459, -0.30636559219480275, -0.3969780769914726], [-1.5085933666543643, -0.773540974179228, 1.47453721320409, -2.4214610478665217, -1.9076016544493541, 1.8434095139124498, -0.13267744006797638, -0.319870734263365, 0.07545780670499702, -0.6650328588485896, 0.07401370299880505, 4.054691483620429, -2.12738612771419, -1.834170401895661, -1.7479638851562003, -0.1250420921824314, 0.11951233340634392], [3.7244068491346303, -0.7323804937713377, -6.372404727225395, -8.346945363323814, -1.749772076094721, 3.1243202326716646, -0.6179068757865706, -0.8947487789697106, -1.0124736620792685, -0.8494262095914902, -0.3403108423815506, -4.934895432771506, 0.6165887537846365, 1.162567483964703, 0.5059152427738083, -0.3160091103367967, -0.3443455770109216], [3.8240488935792483, -1.9559259325424632, -1.8580749954576274, 1.7643086052971166, -2.12673144450856, -1.4538995841196456, -1.4585686243834906, -1.2666785598843704, -1.0205377044607176, -1.2307302249442575, -1.2240166615335089, -1.8499980838387091, -0.08283768304289649, 0.2286048691971547, -0.30440024773934005, -0.8152259056343875, -1.0206637283896303], [2.425519360681288, 0.49456039841017735, -1.7594623834495933, 2.8091338082184114, -2.4641735686707045, 0.32533852154350557, 0.1415380865530375, 0.07231183207863284, -0.0026227867266681937, -0.09921923597588332, -0.19898556533808096, -4.551797479416639, 1.6923882877750902, 1.1673262342974398, 1.128567961106387, -0.4645074449382004, -0.2684940732754479], [-1.0924817455717755, 1.4432165346912142, -1.243430121726838, -2.2398777818208027, 1.3648765849819626, -0.1948419289958905, 0.2976742765159906, -0.15028105787102847, -0.10003059142525483, -0.1891595771109686, 0.17863834411780408, 4.55689734881557, -1.714376521329329, -1.795464947639316, -2.4778845479118328, -0.32373039757901684, -0.14510931943552274], [3.5193023885488706, -2.1937601605979276, -1.8011052963735532, 1.3386900718024113, -2.4634280429786806, -1.100633669071049, -1.5406233710817987, -1.2290851338709239, -0.8506963719504187, -1.2798581976363443, -1.0138050501948537, -2.9344562928632003, 0.28285803244491925, 0.7263911849604745, 0.19765559994466267, -0.7001200697380445, -1.0462653557759978], [-2.4055398468810893, 0.0837473722779062, 2.1403482605132265, -3.1286153942690946, 1.7572939738734201, -0.2187255560772831, -0.053040322068339585, -0.06663220204845147, 0.2137052204627507, -0.3093745300273187, -0.19655395015908206, 2.8944716145476255, -1.6556069903720965, -1.8153513143014286, -1.3201785899208898, 0.13184750373321757, -0.1814415543143454], [-2.392069548967732, -0.049248980616413855, 1.765962724300773, -2.1383025878026416, 2.2743106550422296, -0.5299337385015476, -0.16845537761696053, -0.42717369133962013, -0.289045831527899, -0.3297423483126468, -0.28821650495272344, 3.323476949195864, -1.6929419528234744, -1.648874381806883, -1.7838137226001742, -0.6275003141080345, -0.4061705253958391], [-2.5039696442858035, 2.9837418395489648, -3.8759778463493704, -4.091327099273555, 3.036605511488278, -1.6384475749129341, -0.4401012631379967, -0.4318765195479941, -0.10173405400616688, -0.4953911528826219, -0.5608693698556176, 2.2540600476923074, -1.6476371618586154, -2.1753883578340174, -1.7717481977635627, -0.40489717007883236, -0.7684992742291294], [-1.7912267433901108, -1.0068038931163024, 1.4858668625892328, -2.5630948689266013, -2.715186554638433, 2.080249969199883, -0.3366582373740446, -0.3919795612310249, 0.18309225878512425, -0.5989111980245617, -0.559010419900613, 2.4068433369116127, -1.2519284857885498, -1.419143842588234, -0.8846329829386539, 0.1448954005286524, -0.3774605378966646], [-1.7557724098084808, -0.2194023593493537, 1.2571582092143134, -3.0072255549353324, -1.1969167790729962, 1.7340697411085337, 0.050518089998843975, -0.7116370974664442, -0.4158765884644176, -0.30318275311199483, 0.24075269262075039, 5.317237573620238, -1.2009467129424285, -1.3615080975809313, -2.054574884855735, -0.8566000793846651, 0.13026442005156988]]}, {"name": "_h0", "unit": 12, "activation": "Sigmoid", "useBias": true, "train": true, "weight": [[1.4589487547690851, -2.466133900701359, -1.2729720533786593, -1.819885365985885, -3.1963017424060607, -2.5605389157178062, -1.8286625955848568, 1.3249575930235946, 2.315956911182973, -4.249903978660564, -2.1814679125382326, -1.923210548629707, -0.17865296311679188], [0.2280759329026317, -0.35141429507677435, 0.17949646150182014, -1.1494944410340573, -0.6999785116195067, -0.8544293540781696, -1.241985599535396, -0.29673453514695847, -0.30189405166248007, -0.4041905434353187, -0.7250017015789808, -0.034425817163699406, -0.4297715207594405], [0.5922128340003583, -2.373729053157638, 2.490429546333457, -3.5710534446597713, 1.0076012429469363, -1.877179472763768, -3.1355536725250146, -0.5341529019709468, 0.9339523979348239, -3.4263659482575517, -1.7015767674480164, -1.3361387189284586, 1.2737771953507817], [-1.7061750731238072, -1.9813306777230675, 1.5731194144453142, 1.1856746479842597, 2.296173697825068, -0.7691996779787953, 1.5386526012655255, -1.711155078259398, -1.6817443118574809, -0.43149048913135624, -0.7064570125341679, -1.9758869919541155, 0.5129744457763284], [2.5458751647428715, 2.092070154392701, -1.984852155726792, -1.8024372476024224, -2.673787363350908, 1.920143875474117, -1.61463981926332, 2.1476466548805484, 2.2844951961358646, 1.2078757693140372, 0.7392684568687224, 1.9589056557626285, -0.8785224609324004], [0.08428845380840036, -2.2701054206725573, 4.15276167144725, -3.75915054800221, 1.6558500174070019, -1.868257164539648, -3.6579372498695237, -0.02687321914176685, 0.9950333086189755, -3.311202687587129, -2.0123334895103744, -1.5702006684133072, 0.8552876380941963], [0.40898868108635633, -1.6418394323328966, 1.5181572715393912, -2.4923306469326825, 0.7453940956797144, -1.1143054775826948, -1.8793722003008162, 0.42614428474236216, 0.36312317527475746, -2.2726062768205733, -0.882017697764618, -1.0062451145533182, 0.15544554343772518], [2.01394396134516, 2.024805814857472, -1.9547029515477017, -0.7810961219043803, -2.666297561825748, 0.8836842701128194, -0.7666912758437204, 2.0648200855229937, 2.0072711307176556, 1.3242241896890685, 1.0380666459208139, 1.546928472783401, -0.5353133534884044], [0.5977733211559708, -2.8089385138899914, 4.51248840017561, -4.385579207377539, 1.1588395259057584, -1.847197457849851, -3.138529583695267, 0.1294912412716172, 1.079411535110315, -4.646326840610046, -2.4661128520441977, -2.201346243268311, 1.4027257799236748], [-0.002751436635317004, -1.6079132886340979, 4.2621120422666054, -2.8714386638714107, 1.3335311858606111, -1.0403723804074851, -2.970251822253047, -0.6934499377171219, -0.030294721035917106, -2.246809050427303, -0.9119304615833915, -1.7620202196442907, 0.40211141216836016], [-2.088894553942252, -1.9870962166053365, 1.9060333254625221, 1.40343548085287, 1.8301851156980924, -1.5440158026047532, 1.175487100897416, -1.5929785415220064, -1.8710569014491412, -0.7524493990318698, -0.35491524325777857, -1.4740804952472433, 0.805209323924447], [-1.2985307731624531, -0.9992931772164318, 2.0070624552927367, 0.3354434003287042, 1.5215410574846682, -0.35799841209060995, -0.008896076449401656, -1.1931407408566823, -0.609033161252657, -0.7207849381293523, 0.10594585331584835, -0.4128016466318765, 0.6257639595671509]]}, {"name": "_h1", "unit": 12, "activation": "Sigmoid", "useBias": true, "train": true, "weight": [[-2.8993830354927534, -0.21214150592516318, -1.6584825459633548, 1.0946298422578786, 2.5178694664267054, -1.6546180932722072, -2.1285357575812727, 2.059524827508862, -3.926107191666145, -2.781874088562212, 1.4328795047308578, 0.9573584850481416, 1.4119122964964255]]}, {"name": "output_Sigmoid", "unit": 1, "activation": "Sigmoid", "useBias": false, "train": true, "weight": null}]}