{"layers": [{"name": "input", "unit": 17, "activation": "Linear", "useBias": false, "train": true, "weight": [[1.5825372911872497, -0.5685809741607815, -0.6829762099479189, 1.4208434082112507, -1.3781898122236929, -0.841790179295137, -0.38452890401504686, -0.3375769644424343, 0.06285463833434167, -0.10837687407253009, -0.06838258441045145, 2.339331398342731, -1.2321931191537414, -1.1385092457368873, -1.225916859081998, -0.18415285812211893, -0.39413123961075364], [2.6745720029570044, -0.3412819596491147, -2.1082650676750756, 2.12407816491411, -2.434857986646737, -0.14286841702790315, 0.11737705507779142, 0.13016993493093748, 0.12974413952237873, 0.22961183358608142, 0.23446505403740422, -1.1869153327243038, 0.676025464875826, 0.7993317599574822, 0.6646184180289766, 0.18875444686203902, 0.16641917892540917], [-2.5631158573532398, 0.5701840721519404, 2.3736336374422002, -2.6292127764084685, 2.0841052542490535, -0.24639211730311972, -0.29601792824667505, -0.3230117393828732, -0.00583647999584881, -0.098820407400937, -0.15467399549685687, 1.5923655857212098, -0.7494870758752191, -0.9299920562302887, -0.7740405275413594, 0.10689526437667465, 0.1895303032608221], [2.993410422996203, -0.026107337078717204, -4.14563122932349, 0.3356098307375002, 3.6872062084940853, -3.200869975662596, -0.4076935582148095, -0.47811789323432147, -0.33431665980949177, -0.3118358678422316, -0.34008084891699514, 2.5637149784248883, -0.5420366350012592, -0.6203851836800552, -0.7597696897937851, -0.12970793492353663, -0.12850366770364238], [-0.3983065067245912, 2.1963577879467637, -3.2753968794719652, -0.7733997215433146, -4.386391923342534, 1.8324604941904268, 0.012379563587991664, -0.05108597641715515, -0.4015901376824187, -0.3870725123708876, -0.4301595260795173, -2.5907070459589807, 0.6366216543184307, 0.582297703657952, 0.6897800452128332, -0.5489063813065829, -0.6483983239967366], [-2.1901595857605973, 4.464340465949338, 0.5220295362776269, 4.119722304975524, -2.4232988883642816, 0.638175564368319, 0.5689931012887579, 0.5068907678203334, 0.3415530474991454, 0.32757146513610613, 0.3874930937443182, 1.9411483080239378, -0.6535123766606158, -0.5982495627315189, -0.8094879207933063, 0.002429847612711899, 0.1393612743377338], [0.6137139902165257, 4.715890376045129, -2.1915638365482444, 0.6583303089444942, -2.8657192183547346, 3.7225771877656975, -0.005398202749971122, -0.06455021114993276, 0.3965412198012459, 0.10299085482287744, 0.3632154240574747, 2.033087990000831, -0.21037039418172154, 0.06230468831989498, 0.1405935045374538, 0.49887816766464543, 0.16318779081211782], [-0.7004861208233589, -0.7640495406111877, 1.6341155149774746, -1.5793757095171863, -1.4609499358465525, 1.0842689800534522, -0.2641308839105907, -0.37764123990315657, -0.1643746116869596, -0.1780708005987676, -0.12231651697649615, 1.8741616555231915, -1.2429792672279523, -1.2358454391482754, -1.3424826658051796, -0.06910267782641705, 0.02696394228228636], [-2.135062477248419, 2.720316457490947, -0.16444984612517977, 0.03195874870990002, 3.377090585859539, -1.8092859864217063, -0.03214282164431968, 0.061803108531947606, -0.3658423990918613, -0.18152132002155238, -0.24492409631992412, -2.567789356506321, 1.3045275347820404, 1.0563207339452672, 0.8701897134659634, -0.4668363579504232, -0.16451025051034954]]}, {"name": "_h0", "unit": 9, "activation": "TanH", "useBias": true, "train": true, "weight": [[-2.05343444871654, 2.612170347531548, -2.727765498590608, -4.691352760332547, 3.0081377634114905, -4.278698763666027, -3.2246895835525367, -2.2821458694702437, 3.3906699551927284, 0.2609677727479866], [2.0891114403651807, -2.504774656847668, 2.8371659064782175, 4.681333921619566, -3.0814815316484387, 3.258220201413688, 3.6759782770045293, 2.3462769123959997, -3.8872093051587036, -0.055026073156710036]]}, {"name": "output_SoftARGMax", "unit": 2, "activation": "SoftARGMax", "useBias": false, "train": true, "weight": null}]}