{"layers": [{"name": "input", "unit": 12, "activation": "Linear", "useBias": false, "train": true, "weight": [[0.39940523181459336, 0.1736918696458916, -0.8738991039728898, 0.10333349696774798, 0.3345006279417116, 0.5215933574752413, 0.30228712984207445, -0.9082326219139044, 0.9704157457290131, 0.29406743219522746, -0.14322246969698765, -0.674760233879846], [0.2544610726230577, -0.06101590405582676, -0.2497411556922581, -0.23817958741401984, -0.06722462270379033, 0.2296665639120414, -0.39791754504634874, 0.11187490587126955, -0.1777738349596849, -0.09084271367831913, -0.3812616378130105, -0.174402171335479], [-0.9485699791699118, -0.8933174345354831, -0.5544475819621145, 1.0443571699472536, -0.3665742895425426, 0.11144399286690188, -3.070600766666169, -1.1529562804213898, -0.05486934603513058, 0.09551100271380324, -0.07412977242551326, -0.7226582778307526], [-0.2515617993829119, -0.027980119095821994, 0.4288927480239762, -0.20095045264688957, -0.9808821294237944, 1.2759940190127042, 0.3343474286490697, 0.36108628287728606, -0.26972479851704695, -0.2110104124839201, -0.4323450664943249, 0.18526102757579213], [0.8787804315051042, -0.0967413764590301, 0.5886649725202944, 0.07649828875138598, 1.0445758756133205, 0.5226049848629427, -1.1364681617570942, 0.2434449656381525, -0.11332705109336524, -0.6221080740218217, -0.4834150697627225, -0.3999024436247915], [-1.1982130495654388, 0.15529910505431088, 0.09256596103657945, -0.3392024772346527, -1.7985059410859028, 0.8140990891416833, -0.5601211582223399, -0.5471991005687199, -0.49605277236475626, -0.09383016794274879, -0.8337830300866179, -0.3727570983388173], [-0.32622763533013427, 0.19843307889119238, 0.3806175824637656, 0.07108846716461253, -0.21793850472116516, 0.11902224774302003, 0.12088320634285642, -0.23702741484125758, -0.026650327046514943, -0.1984471206793618, -0.3545470266091163, 0.003047344265526042], [-0.27507426662373013, 0.6541561429383947, 0.28043143393139514, -0.6727056414798928, -0.020899783016171063, 0.2756486552237053, -0.2095121655022537, -0.5389668206790094, -0.1968860948024099, -0.2403191854574155, -0.531219308057021, -0.17392780279265124], [0.42675089602657695, -1.081718997673468, 0.603410519129243, 0.8517156069550649, 0.1853976580859826, 0.6219522948733945, -1.014373576328397, 2.16461757586122, 0.21228289674313122, -0.3298863362981149, -0.3041601082037445, 0.929259090352817], [-0.7578665373256815, -0.5799519533727608, -0.8251293415883973, 0.1975047007205142, -0.9106094913589773, 0.17374424347656373, -4.10927032939721, -0.31411277032243146, -0.24124473760012363, -0.23571291663866537, 0.049660932878600544, -0.47718796052045315], [0.008541609253295768, 1.193044428740566, -0.11312411665650221, -1.1860068152053815, 0.41320321267410426, 0.18529297439641387, -1.3796200783785604, 2.0980340012189442, -0.5865192137490934, 0.1500729123380833, -0.044452826354245904, -1.1160990841058327], [0.031937465573416694, 0.9361799415100971, 0.2532445191430219, -1.1067148137665586, -0.8812044374989092, 0.9012854153811021, -0.8121464409138764, 0.27103788014213775, 0.8316476803477237, -0.5786038252647989, 0.07168933251383268, 0.11783056107256726], [0.9732716360323236, -0.5173749726576867, -0.5258227166543152, 0.28557900318168017, -0.30331933545134365, 0.24123296845787098, 4.242891454800902, 3.4355440300871507, -0.0632644302017839, -0.36722260104045484, 0.2177920486115736, -0.5480161874908887], [0.39668575276306833, 0.5465427300069571, -0.9860321702458775, -0.3012983764659315, -0.953375747422856, 0.28808293608550894, -1.9023934913663727, 0.5807236000397584, 0.5602716438757, 0.40747831815022517, -0.08886931985935531, -0.2966142744677741], [-1.777357651453908, 0.5661991492035969, -0.8580436253238133, -0.7593998792402537, -1.1034776238794668, 0.1860331189665672, -1.5377818312724585, -3.592238905741124, 0.4635559156767242, -0.089807167940567, 0.03237266099031672, -0.411578965147952], [1.2876954185464256, 0.25338695422120633, -0.11345282001301445, -0.2574819078754003, 0.6166343219118237, 3.7081994224386405, -0.4745945315239963, -0.6101303957428009, -0.43780569103462136, -0.12657279107068334, -1.241167866243343, -0.6543313338000183], [0.76440154037753, 0.3713109263348188, -0.12145022225365504, -0.3800459085082572, 0.6051627981979602, 0.7921085218964998, -0.4552944552278443, 0.5037426216572816, -0.28652889951151916, -0.14628529199452756, -0.5973214093759108, 0.009294903063651215], [0.7534822605471728, 0.5889212639158342, 0.896852131996625, -0.7531624609696578, -1.3155553646953169, 0.1244899359844565, 1.9435712166637058, -0.38775981893789835, 0.17348592972116458, -0.16533125862006703, 0.010945843658359326, 1.186941462346301], [0.3596382153169019, -0.09910202827591771, -0.8298418541499923, 0.3943444058261418, 0.5304030111118155, 0.542720138104439, 1.1404048669727767, -2.662508669729508, 0.9784917921453965, -0.7363624050240987, 0.2762660347293185, -0.7632235244559866], [-1.7936714758550305, 0.11561131900747344, 0.6237100066878324, -0.046618676655968354, -0.19394879971738285, 1.3332967476215056, 0.24969111767086052, 0.6728351626080799, -0.15098828248229162, -0.16898506322798823, -0.6673229744405136, -0.7601872888866988], [0.24712608809599715, 0.516906149136669, 0.5066069180726006, -0.3564414738424441, -0.17263353133615322, -0.3319424244744598, -0.4589919425654238, 0.14498566601377835, -0.11842646950622696, -0.1349664452013964, -0.4494134469226037, 0.229599012194391], [1.3464917371851033, -0.7346884741179035, -0.978527778839717, 0.6730107595388233, -0.5247538136755969, 2.287428004061176, 1.3262085875057157, -2.0020395603498837, 0.4620758462515452, 0.4009940621928652, -0.11949905512126892, -0.41791815408088395], [0.6261875554690366, 0.0511244098026676, -0.9424928099620714, 0.16887683741894036, 0.43609659936094863, -0.7244008430387541, 0.9354871459623565, -1.9125187876933034, 0.6606347923500301, 0.5862926032272613, 0.43005544175628935, -0.74883073355893], [0.5330070783881866, -0.44051258508659696, 0.590908908890902, 0.6609570604183918, 0.5274349269247512, 0.9903408095570156, 0.2409762306109236, 0.5121229654492083, -0.6041208040378282, 0.14419291660316644, -0.2575501834934482, 0.036786892268102604]]}, {"name": "_h0", "unit": 24, "activation": "LeakyReLU", "useBias": false, "train": true, "weight": [[-0.30855144276905533, -0.2985592654236785, -0.37577695289792906, 0.5789886201871142, -0.07748393167047209, 0.14517233049085898, 0.40855299194718536, 0.1698368357924512, 0.11474887177258736, 0.07394124127187973, 0.48016245136524677, -0.5677153031033595, -0.5525985665511445, -0.053872752028782445, 0.15978169284648897, -0.6673642457397109, -0.42579211166941944, 0.4400701890909715, 0.3067031213902654, -0.6626538834434003, 0.3678376621693723, 0.22777177458756068, 0.06903239856742605, -0.6751296946241809], [-0.15159850054366195, -0.04992669546077252, 0.37251817207500293, 0.7498730137405961, -0.14419140471845837, -0.17503380178347613, 0.23696558443269744, -0.38260847477403975, -0.12887221171538246, -0.5618412563270488, -0.20488777987098877, -0.003951774211124968, 0.23799435008746098, 0.44607389842552225, 0.13186635595830934, -1.0010050749478607, -0.17381530432513262, -0.03988072445852925, 0.06344463851783005, -0.08222554872427724, -0.03769964211167588, -0.10468857806270575, -0.17848433988020854, -0.4179658213741761], [0.6214316576047068, 0.1336079785775759, 0.31880800844831625, -0.05025069226849086, -0.7666721783581277, 0.5741125213831224, 0.07125298458498959, 0.31646866982430727, -0.7772728739006213, -0.5763186760250056, 0.4380320204673776, -0.6802613814835216, -0.1471391563143031, 0.4521300132207292, 0.5074403021200316, -0.29983922399373103, 0.3031369106045547, -0.7628667698240442, -0.8006337932662391, -1.6244397343884824, 0.06234972723062108, 0.479496588553234, 0.6958333687753995, -0.21148043153512439]]}, {"name": "output", "unit": 3, "activation": "Linear", "useBias": false, "train": true, "weight": null}]}