{"layers": [{"name": "input", "unit": 12, "activation": "Linear", "useBias": false, "train": true, "weight": [[-0.271546923699607, 1.1084197673590082, -0.09700908556203083, -0.7327558388894256, -1.1518993171811631, 0.9934034678200404, -1.41955759756332, 1.875665193847865, 0.31034661700301774, 0.17845742996765904, -0.644076851067015, -0.03831666813184864], [0.3274363941432145, -0.257218917175983, -0.281530672141113, -0.15684614298590527, -0.03336324286096711, 0.0034194986659685876, -0.4155697988806715, 0.3531196150577484, -0.42827053539072124, -0.32036573580955535, -0.5656436104828715, -0.23156495288762438], [-0.6582119972041475, 0.276425331184729, 0.0987543518473576, -0.07244631663014066, -0.3348756270850727, -0.18054184371198964, -0.8082060686217006, -0.2895150511268456, -0.7505345842070299, -0.1102720142788504, 0.01179664178374332, 0.5995974194801016], [0.5078882353696161, 0.015075133912023668, 0.46047627981094935, -0.33175699591094454, 0.3827854274928135, -0.353533364752512, -0.23867501100062835, 0.7527892382993351, -0.5508812748803692, -0.24080749649359595, -0.5142586260502502, 0.34259914909564365], [-0.2681657242613119, 0.19678233882621363, 0.33549705340071007, -0.22443984436799957, 0.0013313240817556578, -0.455721268325564, 0.37884797948653826, 0.036990902328797676, -0.874039914769344, 0.5219847080017993, -1.606096506049485, 0.5233508335332132], [-0.028203644306194427, -1.4246639821986, -0.2651774268048317, 1.170575330494414, -0.8024277927913884, 0.7807306974205842, -1.2061303928211329, -0.6933550429308021, 0.25601270250108005, 0.6498403713008539, -0.3583672444756716, -0.3106852829877334], [-0.15583886526270402, 0.393593687900349, -0.40363574901137844, -0.019466373272644413, -0.048416949789509715, 0.33449240222422966, -0.2632126151350122, -0.5495764847736319, 0.715727321242184, 0.4291643328074464, -0.25048089861140144, -0.6019978326689048], [0.14912051375598548, 0.26472043164450654, -0.466892170624119, -0.2907742089286829, 0.3897788688348849, 0.49834066606684246, 0.06631849380722445, 0.8977572073338177, 0.6678063469807471, 0.39724630673385875, 0.08713528747244392, -0.37921551963699673], [-0.1237844157847231, -0.7904608954897968, 0.3696957429150411, 0.4732875190116836, -0.5677351614124112, 0.34552550973798546, 1.264866016659442, 2.033609500465194, 0.042434223839312155, -0.5798561275800178, -0.30953150446340716, 0.6574276234607807], [0.2051355092236361, 0.3540956638765134, -0.04057029005972872, -0.8718698807913763, 0.042656015999158074, 0.46541103035294584, 2.182786739892662, 2.5012339569484245, 0.5538868784558371, -0.13270119745364267, 0.141620701968088, -0.4457702388449555], [0.6207031505103163, 0.5470330600800718, -0.7728871351562383, -0.5423862561154991, -0.019838505917891974, 0.6295159075014194, 0.5848094340900603, 0.7294032619369728, 0.24956912392952987, 0.2668530888512446, -0.12497525450267244, -0.6952057751905854], [-0.2466801334788105, -0.3637184873642958, 0.2282667121029342, 0.13133756449375694, 0.04722287984102068, 0.010626928347145884, -0.4600151309679482, 0.6938342471473004, -0.24361931517966687, -0.009497142265070698, -0.5840960322792903, -0.23004908639841892], [0.5772027804197027, 0.5743122377966271, 0.08091891612938541, -0.890246265485179, 0.4595826262428691, 0.5908999402301636, 1.183555296478178, 0.8934232472628464, -0.5330290097799816, 0.1515866348978473, -0.20094522173488388, -0.31957538815210323], [0.25252963417680907, 0.49871909508344653, -0.9346551522478606, -0.16492951727961122, -0.06896893083582636, 0.4831515636695347, 0.19254618734186038, 1.4050071626995007, 0.5018232313485724, 0.5755010711754424, 0.019825693516959803, -0.3828310090577267], [-0.4669442467454045, -0.6402019365663869, 0.024136151070576446, 0.3703591603500875, -1.45141864274049, 0.26436836586578094, -1.3340861106775639, 0.14457967214387418, -0.43142909360178033, 0.1483367770201442, -0.23001777025845643, -0.6247983622263555], [-0.07002127765473323, 0.400818793038525, 1.1554714983800822, -0.40591302800119544, -0.03767386689297732, 0.10454487932152816, 0.14317020976470604, -0.7471465348167616, 0.5890601197057033, -0.7222722325714632, -0.05460804493321356, 0.8994005229222807], [0.12101194477218546, -1.1323359344976551, 0.9238411611657814, 1.1217362079990767, -0.10285634729271911, 0.5615491073336374, -0.06359232861372346, 1.5442728322103776, 0.4384020549659199, -0.6239459569876671, -0.313368295367191, 0.7078293594442377], [0.13837106881969954, 0.48822045823711785, 0.400830696115225, -0.7099533612387878, -0.037098188308697086, -0.2237964406302771, 1.1055198271955156, 0.20405696389719957, 0.22520188537826252, -0.8413199255974851, 0.13917779339643924, 0.07797557870695995], [1.233845741877646, 0.08634958777771763, 0.7019143251685259, 0.3225871739594166, 1.5115619768504043, 0.6580467505381307, -3.5336303601546377, 0.7598263633988551, -0.7894674510862515, -0.08872632331448947, -0.29163940359055124, 0.19367839997947534]]}, {"name": "_h0", "unit": 19, "activation": "ReLU", "useBias": false, "train": true, "weight": [[0.42426867635451543, 0.11060837737351951, -0.13713476868260555, -0.12143425085755054, -0.056605869655183376, -0.16873746789912383, -0.3315145648683579, 0.08794484272213193, -0.07654033418170235, -0.4467017781903627, 0.14909390957014093, -0.0486467878030254, 0.48789483477561385, 0.09646353769618948, 0.14208978170499684, -0.015072301479785704, -0.17047487511806939, 0.36701078819706484, -0.07762545021027688], [0.44984779936894465, -0.15689799777674276, 0.032480586860509614, -0.4963064907215235, 0.07221943740780959, 0.09455396465176148, -0.17299892606148037, -0.2927144065525286, 0.4049658187364198, 0.28299710459844446, 0.16688361229350623, -0.010221624084607826, -0.2706386356798469, -0.019360266516114017, 0.45180101998358924, -0.09212795944939065, -0.16489262054990506, -0.05215108186589467, -0.06793790787094975], [0.24350079414636056, -0.24165490771229772, 0.26933714732676955, 0.20313594108921781, -1.103473473351098, 0.6274985484625496, 0.691342253207476, 0.6652367139210414, -0.3231562468560806, -0.35243055867857837, 0.49503657679459784, 0.04204571748241527, 0.09797770514473048, 0.6384522492537934, -0.02518850016608579, -0.6893767381830377, -0.6058554722333761, -0.6895371079487381, -0.6057899753602348]]}, {"name": "output", "unit": 3, "activation": "Linear", "useBias": false, "train": true, "weight": null}]}