{"layers": [{"name": "input", "unit": 12, "activation": "Linear", "useBias": false, "train": true, "weight": [[-0.19903274958431103, 0.6607694356477721, 0.25126898869161957, -0.3949821277976153, -1.2393764042512723, 1.7513925897657785, -0.8537323377533603, 0.11835490365228969, 0.22261921406096746, 0.15353879732792375, -0.5457270296700802, -0.36180913896918226], [0.28967121157059494, -0.04922067287660648, -1.1128788292186917, -0.2420177127477973, -0.31216805751423987, 1.0112847050194815, -0.4309227319891537, 0.01631575292832199, 0.7812533273894647, 0.03252383105548474, -0.45417834757604053, -0.03567718628227838], [-0.19732253616382062, -0.2854914695845582, 0.260635629541086, 0.43187336651009733, -0.7768737627085258, -0.4883556970229375, -1.0790813592495951, -1.1383935630813709, -0.6148330521630316, 0.10481184348326696, 0.14575999649951762, -0.06545244379196903], [0.2470038596616723, -0.220572487778685, 0.283122661944605, -0.0031761271517521087, 0.43433422287169665, 0.25961899828595486, -0.8690773871034799, 0.2875229874892792, -0.23293010269417008, -0.0005598538914301715, -0.240755738439955, 0.31828898232016556], [-0.22239870556396962, 0.4636448617830748, 0.31866016817314935, -0.4838391559558978, 0.40885722623102544, 0.19148888450194246, 1.159157335245761, 0.5453432169821598, -0.4465708398414435, -0.054956416344302386, -0.28949832657949776, 0.02671939343265027], [0.03623136816423216, -0.5894219110347917, -0.42716679528654233, 0.41077517696951077, -0.4491486143137126, 0.12395553279552987, -0.9883801439911913, -0.010538910865953623, 0.3513262096916127, 0.3985505607595906, 0.170217940833473, -0.5069978741737834], [-0.1930499471124308, -0.31761547647158633, -0.3846714833120469, 0.5812640676747375, -0.24737960473911544, -0.013137071367297927, -0.23203496262601866, -0.3378498761033354, 0.5994978858334177, 0.2721780319591004, 0.036399022580346774, -0.4594770980466981], [-0.1649052202821344, -0.3386714796074976, -0.3392499503931705, 0.3204401847519271, 0.09178500937124526, 0.22449206754929804, 0.3803642460088353, 0.6929762251965738, 0.5512999341755701, 0.2708169990469097, 0.23519267418129988, -0.17117451455810137], [-0.0320703430779283, 0.4096901729644652, 0.21212080436247965, -0.6316682168334941, -0.4645107667140896, -0.004828365673655282, -0.4412655999546957, 0.9561682165208766, 0.2846991452411247, -0.6437002720860949, 0.1119747440855801, -0.13503612021685793], [-0.17856603303108154, -0.16484678726629004, -0.16915378593773422, -0.20061181213334592, -0.1303121408065933, 0.29261431633335133, -0.6322215299103373, 1.5272567441372684, 0.7017481565676239, -0.21790156084221562, 0.3806336571551096, -0.3800780005693927], [0.5707072168387242, 0.49208316767944454, -0.642142371987884, -0.4880531210624459, -0.07162731035607899, 0.3404949867457182, 0.4083252840686832, 0.5387701299459359, 0.19158261033068943, 0.27918622768293094, -0.10591566230990183, -0.613761103349645], [-0.15416701549965287, -0.6091911883639742, 0.9252231714978592, 0.4447741316125565, -0.012563104986619661, -1.4786957665244795, 0.3966424681306301, -1.3927240049279486, 0.39718416161732056, 0.14519964884953424, -0.3832936947953125, 1.1474435724178726], [-0.08245363023472109, -0.004392954794374335, -0.26857038201341377, -0.21872595463734665, 0.09331912150139686, 0.12481601684463532, 1.2888340812281, 0.5456750747786784, 0.27418206493662584, 0.2434005384039163, 0.30708066179821036, -0.09324069661443814], [0.24956224606194866, 0.4330749172818403, -0.7094169076731887, -0.1967820919344643, 0.5232618776828768, 0.15760474552424633, -0.7613696501585449, 0.35960059022220847, 0.3321015491642124, 0.38562985409385386, 0.14104812966473895, -0.523973247597856], [-0.18277868363882496, -0.39040684245644003, -0.5720064069396491, 0.20149529690667492, 0.016371074558791, -0.25646936261309256, -0.8224979368398584, 1.3985498850514144, 0.12059103059495287, 0.1346818379068528, 0.1455013414076305, -0.6511880892852306], [-0.20194877114072007, 0.19716527718056764, 0.8388137958776323, -0.20283455037232634, 0.027239437166307796, 0.08198900699551889, -0.035801842865005686, -0.7940946193310936, 0.491612179320163, -0.6905098756524581, -0.002518152213914011, 0.7171690841895076], [0.4992176378195915, -0.07683996188745118, 0.6991646406281566, 0.06941781662453357, -0.02702953702678411, 0.6343364438122504, 0.11001663405628463, 0.27029308527687557, 0.6311660758215075, -0.7095041535048059, -0.12912054035840287, 0.865376789192975], [-0.030649860453889097, -0.42712257617408855, -0.40355554168990276, 0.26885364712994736, 0.1361465339662509, -0.19287518931625203, 0.5844320247780158, -1.1472378888017076, 0.6204668146205586, -0.3981861631497426, 0.2718652060352173, -0.1540406688029931], [0.7656184708210588, -0.09585789281015965, -0.3189309642221144, 0.3824369379926398, 0.7715185604185402, 0.49280931609653256, -1.822236985775187, 0.9595529580223048, -0.1908486768647735, -0.18889260164727414, 0.15388586336642388, -0.27683174270640754]]}, {"name": "_h0", "unit": 19, "activation": "LeakyReLU", "useBias": false, "train": true, "weight": [[0.30838578058137456, -0.12153652244537735, 0.11985806091499789, -0.15284098129569795, 0.2894965958745172, -0.1316905176512539, -0.3281937705207819, 0.00800248126403993, -0.3533595902096749, -0.23545060124075776, 0.11722023889053935, -0.9789118362066754, 0.2002894418264231, 0.16431652579842426, 0.15991276148300657, 0.13502318105473618, 0.32028429575772066, 0.340266766418779, -0.3827268394534197], [0.7456764740866532, 0.4959207354957433, 0.7021970075332578, -0.32858460139535334, -0.23370060409520316, 0.07814823143051734, -0.262983689014685, -0.3511446803999514, 0.4482935450163884, -0.06387291719492263, -0.14582160708385364, 0.5104992595011842, -0.20342862474160447, 7.001084899941869e-05, 0.28488681605703353, -0.2854920580277075, -0.19522787419650897, 0.16928466224304684, 0.04670126214433568], [0.038762560238899936, 1.1831279315340009, -0.22070850335744968, -0.2648314922663558, -0.16194496021042076, 0.5156014608694581, 0.6353262672911625, 0.5329899075121719, -0.26501805508848936, -0.4908949336483511, 0.6143854168889199, -0.35746977410553715, 0.3203366332213684, 0.48437674237185, 0.34905462475583254, -0.6327762412953497, -0.717183777885254, -0.7733329505988633, -0.2664979768209966]]}, {"name": "output", "unit": 3, "activation": "Linear", "useBias": false, "train": true, "weight": null}]}