{"layers": [{"name": "input", "unit": 12, "activation": "Linear", "useBias": false, "train": true, "weight": [[-0.27281624933400095, 0.37703229642685554, -0.12695333589942584, 0.06047467038393912, -0.5148077760878679, -0.37298593265440316, -0.7202752893408689, 0.38737156634994124, 0.29778410615294654, 0.2466810374237179, -0.2557565289709001, 0.08193042260466896], [0.48065867438939275, -0.4189090162642958, -0.37958239508323, -0.062318783018530256, 0.0338436239962802, -0.10648833531804651, -0.14248685218526497, -0.14139929061873335, 0.2133038853776147, -0.19110560068939847, -0.031112501008748104, -0.2244092123891027], [0.1529641037606027, 0.1310204833521173, -0.46169216084950493, 0.10740825504323274, 0.3195885317663905, -0.3523658629676127, 0.2552658745518255, -0.18379418541252188, -0.22469957524570935, 0.4552980451539076, 0.4170273730915736, 0.09756478549013034], [0.3437430890943154, -0.17628668748252696, 0.25676323618772395, -0.19177470604658228, 0.19834438190255305, 0.27835011828644596, 0.12857400386050727, 0.4696171632436339, -0.30497171288606945, 0.1360707095692589, -0.2175534336120074, 0.08442162334244706], [-0.032851486536143754, -0.25565474784614345, 0.35971537241356194, 0.22379090231052692, 0.27996237340252395, 0.3334296118604548, 0.14741504173736694, 0.3407916846166359, -0.34206282822838663, -0.2268139882434149, -0.37729988789275104, -0.15418918759744368], [-0.24165970606067122, -0.15853455246740977, 0.016165203101477895, -0.1377185166785865, -0.3011041214904788, 0.020686971970680552, -0.5291240050728656, 0.3535833542946297, -0.12941589750049912, 0.46329518162921046, 0.3073224819852145, -0.4015247025688239], [-0.10107415418134241, 0.3956244867975904, -0.047211854224963726, 0.03793601169003773, 0.533279063410881, -0.29076323560456946, 0.13543904751549302, -0.19952878876624572, 0.5205210560381296, 0.15867807420612484, -0.05266883015108224, -0.48888374514814736], [-0.23586798659491837, -0.23214649211587343, -0.10236492164853042, 0.2024744830453786, 0.24893101932108788, -0.0322827909793762, -0.3755690500097213, 0.1356133771733663, 0.42782279511220656, 0.1336446884633022, 0.3057356128379998, -0.2004508781147117], [-0.26601742850482224, -0.2115397809602295, -0.6296333982575144, -0.15847773047327113, -0.639707385758313, 0.22737870208064706, -0.6068404262431799, -0.05139708894782522, 0.36569331915631464, 0.0100913077860831, -0.17327971790797572, 0.05510555799309899], [-0.2116269064349622, -0.3999350827018056, -0.03254517514527753, -0.20665675366482086, 0.3213146259572461, 0.280325474140484, 0.23073841077671323, 0.1603921794171915, 0.4821372424414124, -0.36476553595810274, 0.37224923763220397, 0.174284341642807], [0.2622687741885235, 0.7935450610675467, -0.24099182890443513, -0.7888826155112606, -0.12973795451247194, -0.005603367300567581, 0.2774513111514592, 0.8380477685256759, -0.3228916599840244, 0.10126118323872277, -0.07560971131663642, -0.24414875128190486], [-0.24395327357410937, -0.024352103892148168, 0.5223059527999002, -0.2457837468354311, 0.08244422067990084, 0.14777450841522816, -0.1866433575732634, 0.23628777392253458, 0.5090133060202564, -0.321140788400603, 0.05522071490988544, 0.0004773363824171769], [0.05742090728758784, -0.40421516292440524, 0.07867487365861796, 0.037377149910573795, -0.09961404448977294, -0.2370736510347129, 0.410866094803232, -0.25894306405516204, -0.4076970743082079, -0.03342602425363614, 0.3774315342662986, -0.16380333112512413], [0.2412247272001001, 0.34807189037044856, -0.42894031346912814, 0.04194185984386463, 0.035313111307096856, 0.1051075665874237, 0.2576080058291262, 0.17540139980480404, -0.09904379388528887, 0.31884223529122563, -0.05662417974825175, -0.35758578639473765], [-0.32618268311159504, 0.02820356335637547, 0.24093737457856884, -0.3405423588544261, -0.021221959180389455, -0.1489303390004061, 0.16148952599186686, -0.10190883164305414, 0.28524336071829026, -0.17574595815973376, 0.34688864685770915, -0.26675338127172876], [-0.12961001977476375, -0.4221998279380447, 0.4568732656102904, 0.4148925039495648, -0.20075783706416153, 0.02196504667805684, 0.2616003635304023, 0.15936406152334495, 0.14101628748979744, -0.30772277504971723, -0.20821481951156803, 0.4326873034324225], [0.30338630160541474, 0.07777215751899089, 0.1320437023929673, -0.09177533250624081, 0.15676335579428247, 0.10419978666553138, 0.3349457162683438, 0.2902725881891025, 0.3814441659243803, -0.5343489408463773, -0.005323173306066963, 0.5603180681195371], [0.15129737011063596, -0.4925166498611652, -0.5999260716906648, 0.23185509864079085, -0.29318419903037646, -0.3041101340091388, -0.009417007895062456, 0.15905224731826947, 0.3453563009737169, -0.04040841712333227, 0.23994906653445797, -0.35262901293836657], [-0.20110610794516592, 0.1625261694091991, -0.1260341266511475, 0.3116153647748213, 0.11379933442765958, -0.0023717562015754755, -0.26531455203763926, -0.20514098403670195, -0.2868236986919666, -0.04436895771149082, 0.36592121656505106, -0.23559904980680266], [0.16128967394126364, 0.14481370109093783, 0.40776825031765823, -0.03829055218340034, -0.07959799524249574, 0.022338563020269563, -0.24077448107300417, 0.03345475500740451, 0.0531197884298702, -0.5238494183557056, 0.196753499965186, -0.12079041547628092], [0.3709854692106935, 0.42089940369639656, 0.06685674115321097, -0.1628223623117208, -0.3293387297473525, 0.4198002902903299, -0.04318449806901955, 0.4937569726329579, 0.570345642445524, 0.36545764542481673, -0.09926748401986837, -0.28231828878757514], [0.29656377708243464, -0.24955675815282571, -0.5166141273340766, 0.1490158991159023, 0.3839316377096779, 0.1290625408756704, 0.09010650974870194, -0.4268952199741511, 0.3541906783145217, 0.48694873409818124, -0.1499951576943198, -0.12579516777725006], [0.19390482765337044, -0.2408529877656351, 0.5316358839127359, 0.5940740209698204, -0.227342601085351, -0.1620528991735198, -0.08384924440558719, -0.18080975466465787, 0.12624634584515698, 0.21784639798088185, -0.0928297501029852, 0.2700846405064085], [0.11205305902166653, 0.13525754873426282, 0.31850498540481503, 0.2198380736969903, 0.18291719727568972, -0.14057401556330468, 0.030272566141790854, -0.3107630554695162, 0.18254896942704074, -0.49456692029009425, 0.03839912112625977, 0.137695430905599], [-0.16854795209014, 0.002265906789170906, -0.17461047530433624, -0.29826592299236176, 0.21483651560228115, -0.04173400309059781, -0.24713609967741512, -0.013568712508716057, 0.41775555741843245, -0.41077516095827576, 0.14273254986102846, -0.15338409680034]]}, {"name": "_h0", "unit": 25, "activation": "ReLU", "useBias": true, "train": true, "weight": [[-0.23048759833786517, -0.07764845191858433, 0.09705128428797806, -0.031078135382430733, 0.15336230788868613, 0.37859226598124474, 0.12760983927428146, -0.03440580018475425, 0.4134156045588177, -0.28102225250216434, 0.1163676534813803, -0.3581644261435983, -0.35305550358529547, 0.39736434347247107, 0.17857990079871428, 0.13293325329333558, -0.11992076020612764, -0.11476373357700326, -0.32521554033509337, -0.2814539983593407, 0.12599317407618774, 0.23599523347256074, 0.14578796003741398, -0.221093315909224, 0.22166672530975748, 0.38399944605675007], [0.0368694491690535, 0.07578243358307364, -0.054536897886167536, -0.17111915358221216, -0.09769663452984324, 0.17490221287934474, -0.3293966826736874, -0.2604256649027247, -0.3079555569357362, -0.3115329086853147, 0.24111607742673624, 0.13814523015951258, -0.017518412182724496, -0.2727971933334038, -0.005687120866325577, -0.017994632480177342, -0.22167375732227487, -0.044869759352822836, -0.06884628400523884, 0.07858345613641295, 0.09163674580992064, -0.3084294532696579, -0.08505279032322823, 0.08537331717582793, 0.002127387397200868, 0.24455001352589983], [0.12311157105064896, -0.24079768589749728, -0.3047094503802898, 0.09660586646082554, -0.32117691987079505, 0.037821911822411, 0.27150928152345866, 0.02988436788204392, -0.05422064241336359, 0.0725894701085791, -0.02831790567327222, 0.0036329630092580847, 0.2787758601864036, -0.08948678581439641, 0.2871942456780459, 0.2560882769191241, -0.20778304976279535, -0.31236653910215967, -0.28804596518297637, -0.3569213672917213, -0.2950028900816184, 0.12413718238674966, -0.27853904108398486, -0.11866138170099974, 0.20884103166771809, -0.35363791255014637], [0.31447750024146853, -0.19166188911915996, -0.14553790564577793, 0.022336747815781814, -0.07135949747942195, 0.3460141191193987, 0.29380415239851354, 0.3186389746484774, -0.011579723544011601, -0.26000874232985705, 0.5544066250913015, 0.08470092107839787, 0.3599163659452988, 0.03385956553435827, -0.11201785304725227, 0.021000089985564012, -0.25988346325658945, 0.3072271694727916, 0.25053803448114337, -0.17681859179826204, 0.27144673645863604, 0.26012829268225035, -0.2618095761929762, 0.14857540178083892, -0.04868432314357574, 0.3996057771425622], [-0.12206398200688051, 0.30732948487496314, -0.0781915237685796, -0.33180867866989183, 0.30894281315466443, -0.2787609592731544, -0.12241268152211372, 0.28651362202339486, 0.22103654565741215, -0.0026882531480972908, 0.05967642376619972, -0.09545405500276967, -0.17942763579365847, -0.11778393189268006, 0.05485676576559809, 0.13737083557513985, 0.14689222134500804, 0.17622546176499818, -0.306189003931217, -0.06267860714457801, -0.3109858123983127, 0.03205034059773357, -0.011475698534411556, 0.2096260432115495, -0.15981705389764986, -0.3138977514646367], [-0.15201239773976102, 0.07730076987176122, 0.17248481952935707, -0.38315200118669773, -0.2720237911738666, 0.2301681210097184, -0.18678470721842758, 0.3348729285080498, 0.3271941581169758, -0.38668732590012617, -0.27643796879524024, 0.19847517239067847, -0.1027329860194213, -0.004610102159324242, 0.1412154655761388, 0.2506592843070235, 0.22510221738111766, 0.3206370215866951, -0.15102101618129907, -0.3705915441806382, 0.2631247853112966, 0.13106972512043027, 0.0012541930785956597, 0.20246007807264524, -0.3449532576041647, 0.14918053516156654], [-0.4368249516832647, 0.10062970508588634, -0.3873072223101959, -0.29089526092980866, -0.22285137506772731, 0.02009154786431652, 0.16099774993227847, 0.05923271150025695, 0.43171316143958327, 0.06787233019692995, -0.1382761180132451, 0.44678609205317676, -0.1396975019554748, 0.23132170169253458, -0.1990691657932701, 0.3875177885231076, -0.08352087801633118, 0.26586475989361247, 0.12973043827753242, 0.47891034130685983, -0.2937555091086705, 0.01711712970824585, 0.27376550309425324, 0.20422514130005748, 0.23214373901445237, 0.30549372027633254], [-0.08536064864842498, -0.051799293991438684, 0.05979528862402158, 0.3321665314844895, -0.07787806046291314, -0.14097864122136525, 0.34761969525893893, 0.299472050756576, -0.3014498599372644, -0.011892496585480502, -0.36052411072921925, -0.2167753059396178, -0.09984700967957809, -0.05342531221943787, 0.01997709276866965, -0.19816707230113287, 0.3252764124366194, 0.3133107892718699, 0.03763559680821766, 0.0006206650720814601, -0.11912396284055318, 0.28487210435935106, 0.21516211396055815, -0.25947342107332705, 0.22396845999661624, 0.2522242007196218], [0.2754477673804761, 0.33517729131300084, 0.028584657028014705, -0.05367344283918536, 0.4205809092331913, 0.2024469985900106, -0.3530829760334218, -0.3486561073706102, 0.015939061567050945, 0.31756102637671085, 0.20156835944268509, -0.09503849743811167, 0.1061457240435271, -0.07542890818637829, 0.3538530526285834, 0.45674883109026787, 0.39293597601826274, 0.032477094062806286, -0.0077355069523001065, -0.001256983449912247, -0.30632590047219055, 0.2493977706750895, 0.2597917463645177, 0.5132797327312354, 0.3991248673448744, 0.04580834289322448], [0.2554135020418107, 0.1889405545842297, 0.3450113710133114, -0.2801509201506968, -0.05255882656952932, -0.1663533201146064, 0.44120688348919695, 0.19335652461589575, -0.04168112991726956, 0.06379642918747867, 0.3374493220200294, -0.1640618960016532, -0.24519556807094525, 0.2102503897133749, -0.014965640481693144, 0.1458550184405851, -0.044715122108481074, 0.32994004557173956, -0.0033678732066066462, -0.036335061401757004, 0.34898101545320126, 0.03275282626801566, -0.22069347481469043, -0.35791308649573156, 0.13503988862453553, 0.3051854634193196], [0.2136002123878471, -0.348267507860544, -0.14015632219451735, -0.4008264851366132, -0.1507728472773497, 0.1618976669403927, 0.029798513764859768, 0.09816537896678024, 0.4311879842232226, -0.17488104824273135, -0.07100594244261707, 0.13129853357642646, -0.09291360703622642, 0.17167702528412945, 0.2118170542079698, 0.24357614590444723, -0.3605722928676334, 0.42232185523080656, -0.05157514645188285, -0.19899983853794617, 0.05566027533901645, 0.42789561751499966, 0.08301589396506917, -0.17579031530416017, 0.056520673726709755, 0.003506072857210963], [-0.2877004518062137, -0.25173836349645745, -0.2523040031079067, -0.23612141789686278, -0.24499080719791252, 0.09555817832784565, -0.21578714954968417, -0.10468699185620445, 0.26914957457552885, -0.017662344138409586, 0.11365779068610674, -0.22227203482033733, -0.20872655957738556, -0.31143807006716195, -0.22456801838567828, -0.15018663491348946, -0.2190902974455825, -0.27899135987740736, -0.2573303336321546, -0.026604552035227876, -0.19919975680987756, -0.0920684885040897, 0.002318003686176023, 0.12914864912286445, -0.31249385939282437, 0.20539383915941994], [0.0981077175706497, -0.4862920355277618, 0.326325520888339, 0.2755852269061103, -0.2977296650496072, -0.0893221122437086, 0.3180048019426501, 0.25837646629508904, -0.23354596805819036, -0.27635585258609463, -0.07163104203559532, -0.014825618661413827, 0.030097739085775514, 0.00647494574285776, -0.027774843544797076, 0.18047338707582875, -0.34791654312803766, -0.12023202168062719, 0.08222997182816194, 0.26142769754760764, 0.07715090886742883, 0.14015603844935556, -0.1866730575208136, -0.07549309985524184, 0.0005576529436815819, 0.005834821609634215], [-0.15652696669015023, -0.1128777411546836, -0.3464204716330493, -0.12068728747080071, -0.21420308050933135, -0.11701202231553119, -0.25792300859441974, 0.23150885004253738, 0.04049068844746006, 0.06712938407615482, 0.1895495516222471, -0.05313730295351452, -0.33307554363301267, 0.025170115091811072, 0.006153352424439972, 0.13644929206308523, -0.09858755648616219, -0.27440447292707093, -0.19726660931726173, -0.1462791588200878, 0.07740593516092714, 0.048010350391350105, -0.13087059890676597, 0.2771009376852936, 0.018976687011132504, -0.2352151067917462], [-0.25952770266696096, -0.1404792498033852, -0.23133439985155219, -0.23016666251510035, -0.13769404351606326, -0.22852330038585988, -0.22102743894468196, 0.3062307801996661, -0.1863597597926417, 0.14071494594592107, -0.13060358986899903, 0.5129320268138324, -0.16753995352770518, -0.12585967352054028, 0.41615651606418946, 0.43516832467859984, 0.4155654165743715, -0.1208004171649306, -0.1489584303669044, 0.287011853523536, 0.33854426934501297, 0.004325655883897776, 0.1431034833387432, 0.048686056343237354, 0.2855837333675986, -0.050026059297151655], [-0.017976040619822053, -0.09465950769189743, 0.10864916797674337, -0.24604300925715333, -0.17684526407849646, 0.18037035957892777, -0.042225899405029514, 0.20476819697289897, 0.018522699414018032, -0.013336337129712108, -0.08288386499356666, -0.30342330294908065, -0.053085438366065926, -0.15804814746944185, -0.24436818358516396, 0.3776830806340038, -0.13562473497814503, 0.4329262833895242, -0.16815946481650804, 0.15787711816249828, 0.26464937064806815, 0.16539827798919768, 0.0771556152111448, -0.013736535081188436, -0.062256665833239966, 0.5067753700979691], [0.22426580699158524, 0.282234997146894, -0.265715771385473, 0.1566020609047134, 0.2169560768179759, -0.2162260350562628, -0.3062136323546667, 0.06050626246299488, 0.018444908770665576, 0.13431012579352364, -0.2199016011702871, 0.10796011757030019, -0.3157548172304896, -0.22814895200730262, -0.3090105020337851, 0.12755246936706943, 0.03174862309215426, -0.0910011540419642, -0.19679838629985102, 0.1645182906475958, -0.0838256564744017, 0.21475577995034933, -0.11156696718885352, -0.17703948900659522, -0.10075843079939333, -0.23676626765798275], [-0.04277194471212304, 0.18628035544525998, -0.27008738585970604, 0.18623494369520427, -0.013012415985929658, -0.09646570106431826, 0.22690769285857268, 0.05891068530099124, -0.2072250675697077, 0.44349674759562246, -0.015716711292790064, 0.0737430251675072, -0.1915535053676676, 0.14145051726447241, 0.16996458805888673, 0.18006720167527276, 0.472023838752207, 0.22686454405199463, -0.14150139710384746, 0.040068563632899463, -0.24035565189402525, 0.16696276435671484, -0.3613056539862798, 0.2432456612721055, 0.29324745132158786, 0.3789022072475322], [-0.07080841814987737, 0.03249644253315887, -0.13942017579216703, 0.17595470467741003, -0.2963628259562676, 0.016593479855167535, 0.3335024430112342, -0.1140255895124268, -0.16936646803421132, 0.10601540226308744, 0.38640910278610563, 0.07869285406224956, 0.13293060093569703, 0.12999363896546853, -0.15192886036435407, -0.14144052849661687, -0.31047049210571925, 0.3272116464115612, 0.031107009401505608, -0.09677132236401821, 0.07882353879927173, 0.4312375023257951, -0.15467218716353198, 0.02480650300082971, -0.0013973201582019373, 0.2857065977277835], [-0.4809789859687492, 0.23941359378347107, 0.17883116354701004, 0.1273081083071294, 0.19653760094195258, 0.15484131405921447, 0.06531687154503442, -0.3838000083660533, -0.3719007441487949, 0.10766329042960457, -0.003488065345092389, 0.3042109030032295, 0.21553129776476976, 0.21456592396904156, -0.02920772194765908, -0.2881576759462564, 0.5151858688690427, -0.0911020738738651, -0.2704499468072909, 0.3450661824016825, 0.1716988886191302, -0.04712359308388747, 0.016136781677335864, 0.07087536833593416, -0.25997222426269945, -0.24225532176208192], [0.20543159732965074, -0.3357410052179708, -0.10905164702274796, -0.0690742272561817, -0.01446246337956823, 0.280922527830844, -0.13035892253809292, -0.1926004669969851, 0.18203873599235207, -0.029188928943064636, -0.1192458382958571, -0.0201596654239515, -0.27234277825657527, -0.2195132285481425, 0.014695448259002396, -0.04133691466781282, 0.29199227667826716, -0.16780459208603193, 0.027953825242513237, 0.10035009713001704, -0.332519200759792, 0.11093069506723605, -0.30192705651781176, 0.32010253077205986, -0.2227467134267943, -0.058725148536859915], [-0.28126567623451154, 0.3342125333536264, -0.029722451606179458, 0.06470157946057283, -0.296488031210746, 0.1618119672881026, -0.19960415477692517, 0.2229063768472161, -0.20475848619707346, -0.2586802340412844, -0.3143676998154157, -0.07303380064181725, 0.010921819905820472, -0.29458858177680847, 0.1404405271995625, -0.03451240967702704, -0.009124703418264539, -0.04847677862333637, -0.11237031347664024, -0.015339270443327443, -0.2615265569774186, -0.21575455891444992, 0.20780744509759075, 0.25505085357819196, -0.13052050180327593, -0.21013920784396692], [0.09767779207822992, -0.06190745094608086, -0.3376580175423598, -0.23323862246810353, 0.1464983151301594, 0.10917186444459946, -0.34428826223746967, -0.2248166664271699, -0.17129326998256014, 0.07853835308696898, -0.32579002110253347, -0.3275137553266899, 0.18916875547679443, -0.21804963374207093, 0.06681582246689248, -0.17759589579371246, -0.30980369518728, -0.16930478271909716, 0.11951205675905296, 0.17818576184380064, 0.16935611673201018, -0.06974248383188482, 0.07514319239733612, -0.24992167159822745, -0.1739167478154006, 0.2282948866905007], [-0.37924502442633695, -0.15430054583421252, -0.2692611757575471, -0.3211627475025106, -0.10941049910653529, 0.005141069374871587, 0.016406627866523436, 0.3005781863614138, 0.29682820694850803, -0.029989777291927054, -0.17383134555995414, 0.047072137797951545, 0.0866622190483124, -0.18053920087241623, 0.12719986358106303, 0.05990382493255722, 0.22522461910484934, -0.0005000255612863924, -0.10553990497594071, 0.4001614754970335, 0.2377046979940852, -0.23912743003305964, 0.33577682819890226, 0.11571858761388097, 0.329883513352762, 0.3582151727888966], [-0.05072918702657711, -0.3367340906952873, -0.18103895385387972, 0.028241326823060443, 0.04842946998201527, -0.16422966205234105, -0.24463204270391675, 0.16290106507143817, 0.3015965459811608, -0.04724300392170332, -0.2227065567746582, -0.21569509123311945, -0.3880809726279852, 0.2810272294982559, -0.3159842796738948, 0.011790165137598686, -0.1991538008092543, -0.004993630432670971, 0.03950646108860919, 0.16127195271827027, -0.22304349793007214, -0.3317013839023141, -0.30215768919190034, 0.20740366222027354, 0.19655548113804394, 0.0007230300705964403]]}, {"name": "_h1", "unit": 25, "activation": "ReLU", "useBias": true, "train": true, "weight": [[0.058536121738840693, 0.1484572026190231, -0.2964445351699319, 0.40884863560334933, -0.29778992836878404, -0.15264496563578012, 0.15024131518314687, -0.4304017026946336, -0.13158857469180582, 0.27706853523680475, -0.40137350910252223, 0.09278951880079879, -0.22077757687460206, -0.05498554607551922, 0.01091022675290986, -0.16131180123197575, 0.2246786569001704, 0.07526564644902076, 0.07254989114770014, 0.06719125453635795, 0.3294064108485782, 0.41900559158581835, 0.25575081039847825, -0.038869736685755794, -0.38378234097472674, -0.06018192344711533], [0.04409770484945107, -0.40351072923834996, -0.040765772421725334, 0.07150871899878469, -0.20165099069195377, 0.21767040925887784, -0.3383287933056199, -0.4514890493744925, 0.3025000517795767, -0.032217569153844036, 0.15107273420089068, -0.058625460218012085, -0.29792519882773477, 0.2499702487377335, 0.1993851957638915, 0.1502556439407127, -0.24710065964332464, 0.08556347842270068, -0.21750166025362624, -0.4392134702851543, 0.3728147261620027, -0.33013023844158396, 0.3799886770208155, -0.15853922682056876, -0.332638665344213, -0.051026821223388585], [0.4408862760858836, 0.20889573247685284, 0.19656095028814177, 0.25866098374615065, 0.12671329561359643, 0.4399149226994781, -0.3923827268019596, 0.09327688115878838, -0.3353975410184801, 0.5834903199113354, 0.5347525710568029, -0.4143043197734253, 0.2666472695749443, 0.3405877160789183, -0.47616951572626304, 0.22082554204913646, 0.31496968026796995, -0.591806620907213, 0.28353872954163034, -0.13938229418184392, 0.3545639153610549, 0.3740669079533416, 0.3429315010315416, -0.2130736117121717, 0.26967467637826514, 0.41306604517505024]]}, {"name": "output", "unit": 3, "activation": "Linear", "useBias": false, "train": true, "weight": null}]}