{"layers": [{"name": "input", "unit": 17, "activation": "Linear", "useBias": false, "train": true, "weight": [[0.7722562420213982, 0.9251724171959234, -0.20438924494628402, 0.6902954463660994, 0.36670063125430913, -0.5700779636099186, -0.054759153497955945, 0.5670991618178017, 0.47821235129483375, 0.3534932561707771, -0.18025859239436046, 2.145586166340165, -0.8320061651248402, -1.2733340340090553, -0.44865588955379304, 0.31188903276583213, -0.13708003341000266], [-0.26012781238607974, 1.5782893285765354, -3.104755134093327, -0.95307128849422, -2.7914396187540045, 1.8916373469607186, 0.1600851817458504, 0.1600601898690346, 0.133057078675057, 0.1330752851140673, 0.1330462495910851, -0.9748560882829814, 0.5998418684684167, 0.5999247893275899, 0.5999136810024039, 0.32016674744548385, 0.3200660444174613], [2.0194703039024633, -2.133016205932605, 0.32909762948270166, -2.258430319338485, 1.9078658297760118, -0.6951301371083246, -0.01595933890215539, 0.01954577269918962, -0.1882319487936331, -0.061175431263925516, -0.22220255487817206, -1.2921762118264097, 0.258378954308102, 0.2813214861072995, 0.4670152296088333, 0.21879875904570917, 0.16184973311047052], [0.006482649341807275, -1.61749818770408, 2.593266665510845, -0.11686773042698673, 1.4942488410726948, -2.7572416935624275, -0.4119192821969619, -0.3753934001437103, -0.2908031197591287, -0.27441380880247424, -0.30838986013131797, -0.6053246036090535, 0.9338472906494225, 0.8633396432489309, 0.887217396673373, -0.10313016542990744, -0.036918303114642656], [-1.9101155914380032, -0.7236179999746218, 1.925306363268055, -1.5675869818187949, -1.3282454108145223, 2.267868463097209, 0.13734546116862562, 0.20335325877861143, 0.004092568732062795, -0.043475273233059546, 0.07009392290521806, 2.021833089403391, -0.30667616547017135, -0.5131260612254899, -0.32014353755173486, -0.17903768943668083, -0.2584736599379237], [-2.4753348803053736, 1.5006896818488926, -0.21794098126274272, 1.9417984258060563, -2.0342196203607177, -0.3156673096286511, 0.20863972055860258, 0.20869500854960313, 0.14912186403455122, 0.1492520801639759, 0.14913444482190827, -0.7821788334867513, 0.41688741966257903, 0.41678093513500386, 0.41675933321071784, -0.24114317100414218, -0.24103806806451927], [-1.6298584326348944, 0.8194151715755492, 1.266250993259881, -1.6780132222004631, 0.39886982831717516, 1.4471977765866586, -0.035938821317107975, -0.25980942260596634, 0.29617640898780295, 0.203643020154815, 0.18286829896101606, 1.975942159055591, -0.2888939901879218, -0.1983413109380932, -0.062287160998525465, 0.4755203595983413, 0.7185457978450359], [2.4787117141657564, -1.9597266511284095, -2.1595424062911954, 1.9931127090476242, -2.7807325992775644, -2.943189247188844, 0.3032845713634481, 0.029023937418451273, 0.015044155904462373, -0.008996813999053301, 0.16933130783910788, 0.715218939388006, -0.05233326678284754, 0.13219191182857434, -0.14558453996962842, 0.17695560835734697, 0.15593535396019254], [-1.5070020831351445, 2.107875995168648, -1.4658672978042446, -1.2186974522480143, 2.181257121318388, -1.6407507208002208, 0.10374901169898453, -0.07226852010062362, -0.1674761490762471, 0.03454316921350256, 0.08073850569909087, 1.4764268888660077, -0.35748906264144514, -0.4398674994491494, -0.5852347292153818, -0.2100324140469698, -0.06638366415239917], [0.4243976855292072, 0.5976469696223762, 0.029134575998310163, -0.3475437398708944, 1.1109250613930737, 0.3624650978331156, 0.24992413994174884, 0.4509593659703988, 0.29691597890132837, 0.5632639704013721, 0.3893478283172498, -1.677702449834072, 0.9105843652715281, 0.2546160630986862, 1.0042102468054686, 0.22228761876110945, -0.007844147002884942]]}, {"name": "_h0", "unit": 10, "activation": "LeakyReLU", "useBias": true, "train": true, "weight": [[2.036821171518542, -3.0794110014056946, -2.076270016696765, -2.427133831102677, 2.3139633317043478, -2.7429513858784342, 1.9852744994666376, 2.595036413322284, 3.053149653479793, -0.873643278491839, -0.16554430279863605]]}, {"name": "output_Sigmoid", "unit": 1, "activation": "Sigmoid", "useBias": false, "train": true, "weight": null}]}