{"layers": [{"name": "input", "unit": 17, "activation": "Linear", "useBias": false, "train": true, "weight": [[1.3828541367759564, 0.1606153879045676, -0.5575862929688713, 1.1186615538734905, 0.06632644232516999, -0.8236599092108866, 0.14090307971911353, 0.8579909405113677, 0.997023934973216, 0.29423283057736327, -0.25433739523068616, 2.1596454241484158, -0.6380063137866565, -1.2582066401507523, -0.49220205022421126, 0.4789051033068367, -0.4549993331464863], [1.3398737454534007, -2.152451749321937, 1.2862355718938407, 1.3464393315497887, -2.177498343849132, 0.6493441961518299, 0.6538157890676118, 0.14973319162025647, 0.24489835106489932, 0.2204032684409373, 0.6947973341385999, 2.1865673716902263, -0.8821934516330044, -0.014443050708392241, -0.6083183539640303, 0.468287644434557, 0.6003078529016811], [1.7337547406407585, 0.720453819996968, -3.3881342066029685, -2.943299418973881, -1.4406566222227197, 2.2570281494098414, -0.013042484020365357, -0.15790361185280055, 0.19750937081732878, 0.2701802996775395, 0.2420142426453443, -1.2364083418757208, 0.6163171219405184, 0.7870317863645486, 0.7331211116890982, 0.36410633234988815, 0.1934910639854635], [-0.18263932585171927, 1.2027533669835795, -0.3518440834090762, -0.43007779127428003, 1.3254958831326227, -0.41008614731761606, -0.12050156974418637, -0.37491972951271485, -0.11186754258883207, 0.21285059154968367, -0.1600261055828158, 2.12876427155581, -0.5350343384389766, -0.6137380268686695, -1.298770461173067, 0.08644071355249225, 0.35380147636841885], [-1.637904629780914, -1.0249029112343562, 2.547346235020893, -2.0109327049364683, -1.5421506729503653, 2.1960878061123736, 0.0009726200128195801, 0.06168586594108038, -0.25592173937327384, -0.27734915451736336, -0.19604720762601174, 1.540439183104516, -0.14240508427802492, -0.6952111622242466, -0.20475033025616118, -0.6651766149331261, -0.19871211551501985], [-3.3865242396205346, 2.330985446221018, 1.9012944294213694, 2.352495302716978, -1.0205029497653666, -2.7733783596190795, 0.21054672837401425, 0.32722579921175715, 0.04606134346610074, 0.13141712506105807, 0.2054514718125116, -0.783159646745282, 0.7766559263601156, 0.7335101281606227, 0.7298670405802511, -0.15862484305365868, -0.11530029213471744], [0.238004291549242, -0.5274801777003575, -0.28929655766617174, -0.6074292812786577, -0.7452766879113064, -0.4322421541029269, -0.9770287941734019, -0.9330901183741831, -0.6948908054262134, -0.9757994256196347, -0.33169103577639486, -0.34876498193593086, -0.5760334763026476, 0.4572958625964998, -0.2731209706460214, -0.7816742648279527, -0.35524632693031954], [-0.1163875641083787, -0.24141855042558044, -0.1300533520657961, -0.801722508419052, -0.84640856455191, -0.786422246722401, -0.6345360043792452, -0.21522099850311227, -0.21022667432591166, 0.035016936574643574, -0.48381009117217133, -0.606815022677914, -0.8082882014888663, -0.008734516606535944, -0.5792086755635925, -0.14800044590810169, -0.6551767280331623], [-2.4493800171390863, 2.568936791109583, -2.636841151039141, -1.2952771323111074, 2.6984895621271288, -2.909736217104669, 0.12971561170943938, -0.017080543943377005, -0.2267536038662991, -0.11193012613633485, 0.1843353780844131, 1.891003643769792, 0.07456546220290577, 0.19446532620515466, 0.04375349987032473, -0.3033614812654514, -0.017256471560185924], [-1.8912832470885135, 1.6219344486562652, 1.0799409956229034, 1.160195932585526, -0.7311491211977106, -0.8305782431515136, 0.1700141755332454, 0.08595249555713377, -0.10379836218561499, 0.42865868358815024, 0.05842901811359559, -1.2937472102142722, 0.5506195198297634, 0.30435379819992764, 0.027078235021763614, -0.5553840172776354, 0.1982845820891785], [2.0391680661763742, -2.9756787289166806, -0.7801095897123183, -2.7789068484305686, 2.1130490820238284, 0.10302834866687532, 0.055106701489024, -0.008571568455765984, 0.19617493297830163, 0.06818814673295974, 0.1277639349413181, -1.2552417866928631, 0.43062476702307373, 0.49291032952868935, 0.6178668708037605, 0.12617463494156897, 0.06381467705534852]]}, {"name": "_h0", "unit": 11, "activation": "ReLU", "useBias": true, "train": true, "weight": [[-1.1904085234134187, -2.0188808652628416, 1.629378738544471, -1.782661557817025, -1.3203767332033602, 3.0012045758209283, -0.5277337679656395, -0.7717354329588497, -3.3014731298550335, 1.1770053038603279, 2.710052708132641, 0.3362880150691492], [1.6291264575451962, 2.243665661460505, -2.511862025396809, 0.8068760155701333, 2.362284166283596, -2.3375859235592533, 0.05939257961974855, 0.03917972194097664, 3.318116186734303, -1.5291863757065507, -2.634219836305146, 0.2343345903278569]]}, {"name": "output_SoftARGMax", "unit": 2, "activation": "SoftARGMax", "useBias": false, "train": true, "weight": null}]}