{"layers": [{"name": "input", "unit": 17, "activation": "Linear", "useBias": false, "train": true, "weight": [[1.9975129274945373, -3.435607419777357, -2.961189370425791, 2.3117330479484193, -3.5698200588382667, -2.4106350543509456, -0.21823245308390113, -0.005375381475924671, -0.506573066452653, 0.34697057996146546, -0.4921769587840198, 4.154158306833125, -1.2942068147440473, -0.9866817074516854, -2.0549536927796295, -0.17587684137649773, -0.5255138241311839], [3.7722566255479673, -2.5926558398145167, 2.832120448439909, 4.184290308385111, -3.1514146743432425, 2.413765193597398, 0.32875595268815266, 0.43162275258819055, 0.1269143438128177, 0.21578578409311833, 0.42568093719980815, -5.894641626232926, 1.0321338281829058, 1.5050109293634006, 1.1285234871033853, 0.6455088885930282, 0.5893913770561846], [-1.1569345823222814, 0.7169485082886807, 4.20615924274085, -0.05931643476694243, -3.168139187181595, 5.543624139465355, -0.9738867198042043, 0.18781807184818813, -1.0261933039798394, 0.13970508524053535, -0.01632976198425938, -2.0723941569909266, -0.6946847095160099, -0.6962557810406004, 0.5880017669825957, -1.251250112072848, 1.5758772995956773], [3.670061271815782, 3.6529411583972125, -3.1521515794242227, 3.6137879838123395, 3.5223285417239683, -3.0146422766180243, 0.4481341324344671, 0.4657039672671519, 0.870146750993381, 0.9257493168013506, 0.7033292744817359, -3.4426639165718993, 1.1830052156160744, 0.8324032702074271, 0.8750532577582695, 0.7543831833554498, 0.3614001167891672], [0.621105782564787, 4.514584366961666, -3.531056723017308, 0.2829680991090727, -3.6496255125398687, 5.117615581190775, 0.5869980484208726, 0.36836156830192834, 0.5384502901964168, 0.11570667454584871, 0.08681983307476646, 4.1506321849137295, 0.06368321332896036, 0.1349151309784475, 0.46790282871509375, 0.533341282213833, 0.3233383334085744], [-4.097802052011454, 5.988591850245946, 1.571455756339656, 7.2832916718304705, -3.2983948150210334, 0.20059931137398293, 0.8902413639347673, 0.7882077876045078, 0.11538120102822805, 0.2800006127931929, 0.13994423371765316, 4.513297483529934, -0.2484612773049495, -0.48926658126823586, -0.5050616592865473, -0.13887770456383433, 0.3653902983663789], [2.5152740686923742, -3.0098737108255986, -1.0426659647587022, 0.42763994793525867, -1.885207201440965, -1.2389013273722067, -1.7209613448946564, 0.338567418109555, -1.325565553115145, -0.7021607546419694, 1.600317042440418, 0.9022958025499354, -0.3253313666713361, 1.4908023890776163, -1.006563315321547, -0.3564281457614573, -0.14003286120667957], [1.2553405840587588, -2.0651409815380997, 4.193446855589119, 0.053477968258388464, 3.8347338107545723, -2.855627585632534, 1.107616282949643, 1.1818705294739438, -0.02933937034008815, -0.5971960985579859, -0.3934584327170231, 3.2925138511726924, -1.388042764729263, -1.5398795153759126, -1.3116049679715989, 0.8934443987032211, 1.1027885124772756], [3.6098109950843487, -2.45159844829407, 0.6043584689151833, -1.5433617415789953, 4.760918106881207, 0.9023224648682519, 0.8645418819195321, 0.4941551955283704, -0.25325105150985894, -0.6505182691876648, -0.7396683189003939, 2.0645183026984872, 0.20192595342939504, 0.11928992009351803, 0.653494861891751, 0.11742268959954684, -0.1396724564941466], [2.913827488825684, 2.632571160045475, -2.584913698691372, 2.3254404559111035, 1.9413629749989079, -2.587507650036292, 0.4663323175798971, 0.5948392327208069, 0.3903384982075525, 0.6425866871134888, 0.24527980011470202, -6.564863982018222, 2.20185840004254, 1.559215316013633, 1.6208339128210747, -0.07024886723939977, -0.3411715484255651]]}, {"name": "_h0", "unit": 10, "activation": "TanH", "useBias": true, "train": true, "weight": [[3.730894776569959, -4.453669129860869, -1.0911431001679375, -2.60998809204797, 3.5113576229674734, 5.361855323210608, 0.7773022978943153, 3.0279783157405484, 5.121962992519095, -3.2215261604459218, 0.6138665676037396]]}, {"name": "output_Sigmoid", "unit": 1, "activation": "Sigmoid", "useBias": false, "train": true, "weight": null}]}