{"layers": [{"name": "input", "unit": 17, "activation": "Linear", "useBias": true, "train": true, "weight": [[-1.935766777205745, 3.328575142754934, -1.8795730883910766, -2.6600789455772307, 2.801227222995367, -1.6700377660499224, -0.4891489092525755, -0.41194561778484556, -0.31594548277669526, -0.4525301390187067, -0.5004642996433829, 3.7109719243747215, -2.1237890707195763, -2.4602975467744033, -2.356349293197107, -0.6296322091292197, -0.6805882560531344, -0.414437096327931], [-1.4089737288327515, -1.4905133843646112, 2.5003576414106563, -2.0912301447639376, -2.3586382276944216, 1.9262616060478859, -0.23885835532266092, -0.36556102283611625, -0.31182788047963483, -0.645482444592826, -0.32316350030652913, 2.911290655806421, -2.300369457345218, -2.026804722184267, -2.2009925136444686, -0.08983445147559466, 0.0717275472488564, -0.1398044097584022], [-1.6007430461900702, -2.7251079329308, 3.8646738204864732, -1.8968605434368724, -3.991935832942265, 2.968069185759553, -0.4800944869351448, -0.8816706338445457, -0.23528489259574084, -1.1959230258159552, -0.4811632927250917, 5.133326237760876, -3.189153737110281, -1.8384581965361475, -2.383058341205615, -0.37400539041368636, -0.2962636513012706, -0.3096616903681809], [-0.7695777058532307, 5.663390255120344, -6.54322427375086, -1.3690613532169762, -7.001991616943624, 5.116139996614669, -0.8340638440085402, -0.9641644094712575, -0.6639872507930678, -0.5763126112847274, -0.7201986369009179, -2.1688512635976216, 1.1171574285037835, 0.9975796259561033, 1.3759085900672405, -0.2878721747304674, -0.5222110614667586, -1.0330088443657408], [-0.6452543321598454, -6.5249387980778115, 4.946435852009895, -1.3438771930642603, 5.452533278899998, -6.535747541843553, -1.0635536404127062, -0.9097366735975588, -0.854431054934223, -0.0966900631335952, -0.6563197227287687, -2.525865586804553, 1.5710805305295836, 0.875547525909661, 0.47695568102186736, -0.9880591363886818, -0.17810340337292355, -0.8415554507838598], [-2.7138513754144578, 1.664644675314499, 1.2926845340040203, -3.075625859442619, 1.1679492101050541, 1.2541898910274512, 0.006606699543387168, -0.39877386705765333, -0.4186004828983465, -0.6111071944097299, -0.6483219746301611, 3.0127725092066457, -1.0758457579390341, -2.1170068114052287, -1.580939222896912, -0.5762811768216649, -0.1290143786940529, 0.050622315429235995], [-2.2742219269507924, 2.456553803696474, -1.5103947241576807, -2.5616988165884607, 2.6569013551927867, -0.8549893871011216, -0.1688191483065633, -0.2510470693491034, -0.32782631248448724, -0.3708373513910037, -0.21807327428866546, 4.352604637353761, -1.520734741606638, -1.9582078742068334, -2.3805476062884696, -0.8965410147137973, -0.6398752045860227, -0.535396730863529], [2.437201564150213, -0.036790871752833874, -2.2619887297171184, 2.311874418175713, -2.25286192268041, 0.17423859853884127, -0.23007437580645015, -0.4412843233263456, -0.10142956596157268, 0.2418934122105566, 0.10861266524005131, -2.0715782861174565, 2.0090755728434746, 2.1762208375354852, 1.6135647598970795, -0.16721063969442754, -0.18564824699469468, -0.25927491055121626], [0.9650637475343871, -1.9664700464758214, -0.91991009962109, 1.7869549896974712, -1.6800182103894417, -1.665841852955962, -0.40175858005451787, -0.7450378226731471, -0.4264275349953509, -0.6374368496868741, -0.6413415389903051, -2.331912668426254, 0.9185908407707365, 0.9871799131128809, 1.224999183573172, -0.3077782688793347, -0.9705640319662552, -0.5844622629482753], [2.270591589110862, -3.1434915187674086, -3.466927055518261, 3.373235413140885, -2.706214522776581, -2.4095005398293536, -0.6373872680938406, -0.542931164553246, -0.27854638623141764, -0.6573229269245304, -0.5550015464246945, 1.5044287244618884, -0.7891771181951273, -0.5550856744326498, -1.0732704909229092, 0.018911275756184554, -0.4878505252217594, -0.7690511502964671], [0.7769903843045746, -1.6405304402338041, -0.24943643100162377, 1.1319232542386792, -1.1847648430371478, -0.595454000091458, -0.42877414054359986, -0.16795962121780117, -0.5504816144557665, -0.66840298098372, -0.755844361573615, -1.2839957362990164, 0.6190199474505846, 1.0896568634872152, 0.9547554886938197, -0.5341064606683211, -0.3934275916789263, -0.1524719749401685]]}, {"name": "_h0", "unit": 11, "activation": "Sigmoid", "useBias": true, "train": true, "weight": [[2.8713186786330467, 1.5518094116533296, 2.4897580603785703, -5.599443330552497, -5.277224005106997, 1.7749506306113583, 1.6141272069790942, -0.08795537696535549, 0.9904040774119784, 2.5886152622022403, 0.4764456682671767, 0.16401869582296266]]}, {"name": "output_Sigmoid", "unit": 1, "activation": "Sigmoid", "useBias": false, "train": true, "weight": null}]}