{"layers": [{"name": "input", "unit": 17, "activation": "Linear", "useBias": false, "train": true, "weight": [[0.143746890608208, -3.1583045621948553, 5.042035314634221, 0.9226447030499432, 4.034783342058004, -3.250480017797693, 0.6549694985314971, 0.6993444242187575, 0.23647037892311093, 0.03929853014858043, 0.06895242350726001, 4.09444358170573, -0.09909078461019208, -0.1566025921062369, -0.1342746086917986, 0.28930326577261306, 0.12304368901392293], [-3.374868165119036, -2.2380457165811793, 2.0650980320171968, -1.8832245646644106, -3.1707451870756684, 2.37738929857097, -0.15573847852174522, -0.35360348052512813, 0.027916958213106496, -0.2968686143313728, -0.3514454512284831, 5.658660016506657, -1.3618393300528584, -1.4681659088619432, -1.2575527580136139, -0.05319523122521784, -0.2088985631591787], [5.315123218857223, -2.974099104953223, 1.1323216654372465, -2.915816003760901, 4.962715167703845, 0.2568491706909464, 0.5564997500683131, 0.34247475568097135, 0.6717546046302716, 0.24515022756420615, 0.3883230213117479, 3.0736691136101917, -0.4081290881120947, -0.12625331020651515, 0.3994493284612731, 0.7978696370547314, 0.04810843356796404], [-2.491174174800556, 1.5002264178147569, 0.5141186369801014, -2.1549402778974183, -0.01569337967944089, 1.615584323290595, -0.6830645786443368, -1.1356907554321456, -0.5105703076854531, -0.21227638536072557, 1.1566555077448069, 4.6138668940198535, -0.5046223081388128, -0.23856649342789205, -1.235947235029808, -1.7880155371627144, 0.2414106277687626], [-4.1330413850504115, 1.806797789651562, 1.4264863011634494, -4.170168941757736, 1.4262156403510813, 1.7166999153047369, 0.2896434468951461, -0.08365839195084868, 0.1719210877171489, -0.2007469058371404, -0.39251620533434667, 4.429174273858427, -0.4883863981314456, -0.5589485670267091, -0.496351981681358, -0.3353991316767314, -0.07790588650636507], [-0.46556344812179734, 3.145157353018541, -1.6308153758780797, 4.167300826521355, -0.8146693586925599, -3.5250530271022913, 0.5421670263270373, 0.6849674802187694, 0.4629426781267989, 0.3403930640277771, -0.12290901914736226, 2.033699388610096, -0.5250565408691042, -0.838325766190378, -0.5479653178274466, -0.4343367819118836, -0.7334992550182898], [-0.48161346083460066, -4.968563150103523, 2.4014596478375547, -1.2516538398131782, 2.9982200096920493, -4.402803986928585, -0.5195660413636098, -0.24031610692932429, -0.3090268281689574, -0.0082892768399309, 0.03919888233480603, -4.651495300825126, 0.23221257824425848, -0.11032461438138907, -0.5300142369210482, -0.6001640232801545, -0.09427226673776382], [-2.5808360929085157, 3.28814589464391, 1.9118738905531227, -1.7239988163599926, 2.2731019236652066, 3.1620858849136644, 0.6836654940131508, 0.20597752906656697, 0.6852947517703444, 0.8775007300368514, 0.8319483065222113, -0.6595286484656213, -0.05906430004988452, -0.25753615742730357, 1.1051353142604943, 0.29297091656358226, 0.9019455737512019], [-1.1831653183808073, 2.4409896389944166, -2.27720770419692, -2.174140342415842, 1.7388363617276972, -2.0556146476192327, -0.523596127338809, -0.7171589262373933, -0.32810202218557294, -1.0139042473946638, -0.4661985102777658, 3.9867778409019605, -0.4270599890122857, -1.037758555681694, -0.9031752463030267, -0.2084402994622293, -0.37700782002013816]]}, {"name": "_h0", "unit": 9, "activation": "TanH", "useBias": false, "train": true, "weight": [[4.268838216811633, 5.270241223303942, 4.261352257607343, 1.1119831508201696, 2.0480246082087175, 4.0117594831727486, -5.775802684313135, -3.7695306932033312, 1.8251777471851574]]}, {"name": "output_Sigmoid", "unit": 1, "activation": "Sigmoid", "useBias": false, "train": true, "weight": null}]}