{"layers": [{"name": "input", "unit": 17, "activation": "Linear", "useBias": true, "train": true, "weight": [[-3.7338884217572916, 2.4633690563688595, -0.7437387722099681, 2.681482537263542, -3.5156979236063166, -0.30839829794892987, 0.036417942328958085, 0.036519373825611635, 0.15406225716664518, 0.15381545302830282, 0.1538657315452685, -2.096607555423861, 1.032282600995524, 1.0324315814842904, 1.0322456872624863, -0.11303175127478884, -0.11320025978590706, -0.05729968813722775], [-0.47841701751802995, -3.7568576177530346, 2.550817186448882, -0.6383791924889941, 2.6401071095821598, -3.6675793961863947, 0.33133239645675305, 0.33147963779780293, -0.08700156859464671, -0.08692694978874782, -0.08702669462658137, -2.8081887717610132, 0.19491170263356938, 0.1947147701879834, 0.19481635454447893, 0.5177030668081971, 0.5177981202562049, 0.15990505771625912], [-1.4547382192679363, -0.9221315059174844, 0.4421023932876768, -1.2497819548474722, -0.33240060901318036, -0.9129232824816537, -1.2200532293742528, -0.8435573619872254, -0.7244356435690262, -0.5324741745961281, -1.3162300253977897, 0.45921647483580885, -1.0228650862775972, -1.2583761071526778, -0.27682074309829735, -1.027080314550477, -0.7331736806524629, -0.8525409563057733], [2.0150007253850606, -0.6243740157324984, -4.164761124031396, -3.2520635887851825, -0.5897847333574345, 2.9585994357642043, 0.0002024325358225128, -0.05239138670949853, 0.40619755437854144, 0.4141733858635699, 0.3912458801923449, -2.829195719049117, 0.6395532531802451, 0.6622610949543566, 0.6693856937784254, 0.4540900558135389, 0.4313223792905535, -0.24823485179276128], [-3.5207451028732506, -0.5281374481962646, 1.2755184016272796, -0.8262330201858992, 1.7858280849180517, -0.9673787292647972, -0.5432443708929757, -1.2912678862447615, 0.07422484398867693, -0.5928569427669808, -1.2074982863563994, -0.7821726357164244, -1.6065241198892088, -1.2209646212031373, 0.20303287482309712, -1.3650767854907824, -0.12297263023845559, -0.9418426232958786], [-1.2890962375845552, 1.0105068015724596, 0.6630390852264356, -1.4083315852229266, 1.185273186994419, 0.8686782812903151, 0.3752318261733856, 0.19021272405283163, -0.30147234763919895, 0.06992780253463088, -0.04209892478156013, 3.4349430772486564, -0.6539251003986924, -0.8776461602700689, -0.5500390053033184, -0.0017459860272197676, 0.46252904445193826, 0.7843986637580768], [0.6362686415255442, -0.1862617954953326, -0.04548243898866322, 2.106111632537372, -0.20907549012749468, 0.5652031172741233, 1.0320089737844906, 0.9775439097026608, 1.2317955065469228, 0.6355070104972552, 0.721021757451651, 2.0897012024241457, 0.008879903291408022, 0.24505768414874907, -0.029130898162438915, 1.0162323614490476, 0.49005060691726887, 1.2784744654503721]]}, {"name": "_h0", "unit": 7, "activation": "LeakyReLU", "useBias": false, "train": true, "weight": [[3.88379822727631, 4.268716073647881, 1.1265163896682682, 3.5692041445923794, 1.6440707027533972, -2.481484958197898, -1.612817119074863], [-3.62965560036491, -2.9563769774150557, -2.220368592076649, -3.520968915982222, -1.4474093982531595, 1.80499698431873, 1.762476774930986]]}, {"name": "output_SoftARGMax", "unit": 2, "activation": "SoftARGMax", "useBias": false, "train": true, "weight": null}]}