{"layers": [{"name": "input", "unit": 17, "activation": "Linear", "useBias": false, "train": true, "weight": [[0.8421892889769839, 0.9165402280632569, -0.5316845421078267, 0.38914528463388576, -0.9831230333116174, 0.388798436787371, -0.01213162687153718, 0.3468250857564201, 0.6209396538950543, -0.06592098520671302, -0.20926162171626986, 1.87148406294099, -0.8764182954876212, -0.052027228145622134, -1.1717295135095593, 0.3530450322358931, -0.4423653970560718], [1.1731676873096961, -1.058711805503814, -0.9440688779141856, 1.6775894691222821, -0.6831412297513659, -0.6980038686927326, -0.0929616643080555, 0.096299751280202, 0.022604681098432805, 0.045313959027772334, 0.1519811506179432, -1.0494341721696676, 0.5175501223868515, 1.0012425156534641, 0.23242678354846158, 0.5550109063740449, 0.1239007692531097], [-0.1230222648116599, 0.7160618052096827, 0.7917828582269817, -0.640205362356618, 0.8452294885287679, -0.37334096389575316, -0.32464704533135624, -0.051664609023142016, -0.20868854803997447, 0.09794396486712786, 0.18976454605055293, 0.5904125199986093, -0.3230453988564568, 0.025868133108601137, -0.34561994229580933, -0.611697043280959, 1.0523081020934855], [2.028062423053219, 0.058882366377592435, -2.246142336041193, 0.4071524766753923, 1.808603446574358, -1.8309437497658998, -0.3335084972485021, -0.2853186831186257, -0.1959466529895038, -0.07520388127703194, -0.18341293253581342, 1.0428157399306173, -0.2523776623991529, -0.417404924594733, -0.47316790330630676, 0.03414719931510789, 0.1360102986207116], [-1.6695015821982822, 1.9936182875237034, -1.557110387412421, 0.32424067424785413, -3.415045079936852, 0.5511048041474659, -0.028443187560610234, -0.056072638941403276, -0.6172560808358185, -0.3121466836528864, -0.43914688626911574, -1.5979827517379552, 0.5071772229230791, 0.34720872706305234, 0.1598987887562986, -0.6786385045886538, -0.601528564590747], [-1.645573221841094, 2.678488180685905, 0.6904734758064015, 4.146535402849775, -1.4573630486923848, 0.2871291253029249, 0.559303417085154, 0.5740075945810884, 0.20381653324586757, 0.446492065790646, 0.35469153435976886, 2.0757632019928822, -0.4857066018500491, -0.5210405880482314, -0.6977708828211473, 0.09228775544615242, 0.3017237223002417], [-0.047876188038883626, -0.020424999972191032, -0.155309345412832, -0.11220161378231525, -0.5534110148119455, 0.5058555424107692, 0.16010594324110042, -0.9635770480980081, -0.5663687093690383, -0.48881908223865433, 0.730432305013269, 1.881632121553459, -0.6934884957896259, 0.2106630667696926, -0.7264052230222541, -0.2671756030308851, 0.2475627492425433], [-0.6515780270607109, 0.8869899873030661, 0.3767244187580119, -1.4098815503691693, 0.17300422391003362, 0.01752476612249464, 0.0631268116426141, 0.06551886634374472, 0.1774451975329548, -0.29447101391433167, 0.10157232597134887, 1.6996932364685133, -1.1148016701437482, -1.4681795691525663, -0.9928237431831595, -0.04005089062980067, 0.2852521448296125], [1.1766292139630388, 1.7571223356010774, -1.8993467533510688, 2.536657009290117, 2.22205657200765, -1.350842308205784, 0.3362466375219393, 0.33308060571021475, 0.07635830335679954, 0.13706653779356714, 0.0648850075730474, -1.5078808957966774, 1.2440023987089313, 1.1142375520753538, 0.9007808580294662, 0.2244688601714412, -0.016092462789714528]]}, {"name": "_h0", "unit": 9, "activation": "TanH", "useBias": true, "train": true, "weight": [[-0.7224751268976194, 0.93236729821742, 0.4928963388061474, -1.9743198527061996, 1.9876966200070894, -2.9778555583343946, -0.1492729808543938, -1.114330827993381, 1.800865462759837, 0.3356126596185524], [0.7581521208446845, -0.8249716032736111, -0.3834959354173842, 1.9643010156495129, -2.061040385971832, 1.957376991798814, 0.6005616691973718, 1.1784618698219445, -2.297404811299801, -0.12967096462332728]]}, {"name": "output_SoftARGMax", "unit": 2, "activation": "SoftARGMax", "useBias": false, "train": true, "weight": null}]}