{"layers": [{"name": "input", "unit": 17, "activation": "Linear", "useBias": false, "train": true, "weight": [[0.626279750925911, 0.44949841058689827, 0.10747286596586114, 0.48972120156678856, 0.14669530527619548, -0.33621688914324066, -0.36648538488923255, 0.6106847190323017, 0.4521107072449035, 0.37573192784944376, -0.4443629027140517, 2.079546781716619, -0.6057636947861047, -0.98712970884113, -0.378506300222695, 0.17577821980568994, -0.3299064583743555], [-0.8323249808745883, 2.023568979600225, -2.0898824705533765, 0.22737840208592902, -2.755841106240235, 1.4852287580338854, -0.00853514550803734, 0.0880825755270524, 0.021048056619360034, 0.1063530489169153, 0.030658303983862437, -0.5641850326507307, 0.3369470509576386, 0.4966405639300345, 0.36800601940813016, 0.24564773518594868, 0.1377674722872915], [2.2295525869145174, -1.8885127080157098, -0.01801167394699599, -2.5415164221484297, 1.5764563581269628, -0.27549841364980726, -0.20509475838991206, -0.22349477169850399, -0.16723094148756548, -0.14823039601490387, -0.2106507956130525, -1.2017457323834815, 0.5901263594740264, 0.5653155127447625, 0.6092046440289518, 0.11914571727286624, 0.11889850254278692], [3.0385656877515212, -1.0786902649419345, -1.234665279531146, 2.9983869264080125, -1.0726928219759901, -1.697098127499938, -0.30927749361277274, -0.7956871209766481, -0.29137134219641314, -0.3463146522252686, -0.27525871722683365, 0.6195822851272341, -0.41931474299555155, -0.2716637776350523, -0.46551127677745835, -0.22133089585392254, -0.35011437918246047], [-1.7315953118901806, -1.768135210379157, 1.9482178668432262, -1.5376871763220787, -1.7023592022600933, 2.0155784207119805, 0.08395280062417346, 0.1986776043494139, -0.07734901560098663, -0.16927177239433658, -0.07885308191175053, 1.9140103248729097, -0.1348372489810344, -0.0878242957708278, 0.02804372462275165, -0.23069510215626646, -0.28039035790958705], [-2.4528024015873444, -0.08031309449380046, 1.698668332067229, 1.7562345476661902, -0.3723425986435411, -2.3710877276697295, 0.2347937314300574, 0.31909139430098077, 0.058378736723671915, 0.06298126299291783, -0.058632237200723115, -1.0633758044634753, 0.6879642518795667, 0.5280879089748476, 0.49547770190373924, -0.39962317611387344, -0.11625793615782755], [-0.6967811592918278, 0.4486792086844349, 1.0644941102706043, -1.2393379491529177, 0.3060039552238314, 0.6248564640828546, 0.13902407071487716, -0.5459117349439488, 0.1997571241029595, 0.18859383612001054, 0.055503917624718735, 2.128776452643948, -0.028200167655444093, -0.263719764620798, -0.4589923439375532, -0.19138991678629547, 0.3670679263725574], [0.14850419737257858, -0.15685103758155503, 0.4020416787934594, -0.14316128651951499, -0.2627660924069746, -0.5973758799614255, -0.27925993226491275, -0.04599772958792916, 0.3321859022591716, -0.4593949312076981, -0.2472337284450846, 0.11538358498804777, -0.3083790490653035, -0.5363478805805173, -0.7611350785839066, 0.2900924218477292, -0.6998920304407952], [-1.6367318369674295, 2.022603684027558, -1.9791240155574412, -1.3346520780184108, 2.426513856808406, -1.6129882936529252, -0.026755247555366863, 0.04435483635000135, -0.021163416437859864, -0.015300973544036785, 0.017314130047783535, 1.8346275939123102, -0.07581615614156502, -0.22854891925087203, -0.15721036658478854, -0.36293733875877254, -0.24275076253383895], [0.12961913467405503, 0.8435995636072844, 0.3791715949393165, -0.6331263433270333, 0.7207127623917621, 0.7608818741283373, 0.3688762082835127, 0.14053808141261143, 0.07957920756423441, 0.4701661078894056, 0.39043589724664857, -1.5599802183738307, 0.6790979441334185, 0.12746313861859462, 0.8871584835838906, 0.0031629000114595527, 0.02508155787802189]]}, {"name": "_h0", "unit": 10, "activation": "LeakyReLU", "useBias": false, "train": true, "weight": [[1.489068467467796, -2.53442685301206, -3.226099694320315, 2.4889679493903927, 3.0368562367699363, -2.7336251039359314, 1.7411145346077985, 0.4028363699441954, 3.2041317302642733, -0.8385560936885821]]}, {"name": "output_Sigmoid", "unit": 1, "activation": "Sigmoid", "useBias": false, "train": true, "weight": null}]}